4.1167116,-1.6402825,-1.5122467,-1.8523802,-4.1154585,3.5673206,-5.0904284,1.4425694,-3.7167346,-5.263192,-9.672498,-9.910811,-2.510707,-6.407357,-6.3842897,-8.961852,-6.5080276,-6.3814983,-8.479824,4.0267005
1.5050524,0.98299146,-9.774774,-6.6045437,-11.435081,-0.9950877,-5.604829,5.851322,8.724258,-3.3436687,1.1863952,-6.783471,-3.1805136,4.7174973,6.1571813,-10.182912,-9.889868,-11.995338,-12.453167,-7.3912764
-3.3958933,-2.2676077,-0.7264855,-0.53052044,0.61371315,1.823265,0.7536015,-1.5410794,-4.161342,-2.514737,-3.515048,-8.302111,-2.6533854,-5.6086144,-4.5033107,-6.337976,-11.984791,-6.339472,-7.888921,-11.268
-1.0828257,5.848195,2.2555554,-4.480493,-7.601701,-8.479689,-0.93818444,-2.8071637,2.5837533,-7.637145,-12.20082,7.09825,-3.3942413,-7.3814635,-13.056444,-7.166419,10.919814,-4.0166225,-5.231,-4.5937066
0.69983184,-3.934127,-4.9096365,4.4914365,-1.8945595,-6.712846,4.376764,-3.6143615,0.34690595,-9.242303,-4.751406,3.7404006,4.3801684,6.9784083,-6.017614,-2.4254868,12.821421,-1.3517039,7.063696,0.6573523
0.3661257,-1.2111996,4.555949,0.96536994,0.62342,-1.3724582,-2.765146,-1.9168745,-1.9627666,-3.8679895,-2.8425195,-9.659375,-2.185075,-4.4172306,-4.640359,-5.7595124,-11.286268,-4.0323734,-7.7252226,-8.912412
-2.709446,1.3222238,0.5735135,-1.8116962,-0.6049928,10.683584,-7.9870963,-0.10848555,-3.4570384,-9.777254,-4.9302173,1.5617073,-0.68213415,-3.8026361,-4.5252857,-6.837518,-13.486954,-9.286129,-15.5877495,-17.664793
-1.2509036,0.20129263,-0.20992097,-0.39675775,1.1081662,-0.526317,1.5368268,0.67441803,1.4871624,-1.2419723,0.7075451,-2.1462548,-3.395174,-4.0850086,2.0380685,-3.5389159,-3.8500938,4.2077417,-4.6570916,-7.808819
0.05369233,2.164498,2.6874077,-1.1191003,-1.4296011,-1.1674187,-3.463997,-2.4937763,-3.883513,2.5808744,6.2052407,2.2456086,-2.7888708,-1.5343869,10.239453,1.9555669,-1.6254008,-3.7847874,-2.2155156,1.1523153
1.4786412,-4.8635197,-10.168836,-14.2910795,-8.595488,-18.693857,-15.491619,-13.220043,-9.905997,-13.454232,-15.152298,-4.0780115,-7.1851387,1.3550369,-7.0818276,5.5801473,-3.2380826,0.9770639,0.5217014,1.6488254
0.24274425,0.08219636,4.0247016,1.1466265,-3.938775,-0.011809647,1.5493933,-0.9227413,-1.4548442,-1.0106175,-1.2296085,5.28295,-4.6811132,-0.5149905,-1.6641915,0.035844937,2.5298455,0.62155795,1.739087,0.49818784
0.6519256,-5.043283,0.9632755,-7.385651,-9.862105,-6.694613,-6.0037837,4.8204803,-7.9325943,4.1034875,5.1666203,4.5596876,-2.5246418,-0.36956728,-7.804921,-8.533579,-3.1413887,3.8354757,13.088052,-1.5370505
-1.7008678,1.5882832,-1.2486192,-0.26201338,1.7693983,0.3132647,-1.2474467,0.6358349,-2.914981,-5.605453,-5.4968133,-8.211074,-5.630689,-9.250934,-3.6603343,-1.1100334,-13.871187,-5.4515142,-11.724824,-12.444734
0.78549093,-0.9707033,-3.0518777,-6.4579296,-7.578516,-7.8451076,5.066318,-7.484864,-5.9081225,5.962741,9.909132,-9.163227,4.512591,-7.74859,-7.154504,-0.062314447,-2.7129,-1.9441175,-13.337893,-5.3696074
-0.5047913,1.4233755,-1.6448325,-0.6287342,0.76848865,0.67355025,0.77213603,-2.1882758,-4.3361883,-0.60234785,-2.8931904,-5.0747557,-3.3825297,-1.6456472,-3.7612143,0.086056575,-4.8621798,-2.213592,-1.0146745,-3.9503736
-0.71225387,0.12413769,-0.22151627,-0.6072517,-0.7438727,1.1393502,6.2250485,-2.4670568,-2.9365177,-1.7518911,-8.680619,-2.2638059,1.6294032,-4.54592,0.043269802,1.7916893,-4.443742,8.298908,-8.066395,-0.101516716
-4.2400403,-0.16217089,-2.379887,-0.104142785,10.280339,0.23613212,-2.3638244,-5.2814803,-1.5683751,4.2665906,-3.4697382,-0.8558728,3.4809084,6.425133,-8.20978,-8.319251,-7.2167907,-3.3833997,-16.572317,-12.441654
-1.5041558,-0.4655392,0.15447305,0.7633996,2.945154,1.1446531,-1.3216546,-1.0854708,-3.0807486,-7.1120358,-2.422866,-4.573148,-7.254607,-6.027411,-2.1749463,-3.3438845,-6.5841374,-1.9653302,-7.8897386,-5.9411864
-0.8388837,0.7840587,1.231973,-1.1513027,4.9005566,2.2693405,3.5859344,-0.6309928,-3.9614255,0.5230399,-2.76223,-2.7988658,2.4200618,-0.09118353,7.475573,-5.5517745,-2.3660479,-0.35379153,-3.5245059,2.0225968
-0.49581137,-0.08579113,2.2155025,-0.5000749,-0.8238552,-0.49318445,0.71101063,0.09288184,-2.4802756,5.741813,2.7303002,-2.7341547,-3.7398822,3.0478668,2.5902228,5.883537,-3.6606643,-3.974408,-5.398122,-5.303419
0.60980403,-1.5316317,-1.1027144,3.6564713,1.0082655,0.18279257,-2.5458972,-0.10312667,-5.752683,-4.4072194,-2.5731227,-6.4906716,-7.3998294,-9.338199,-11.817978,-7.1750774,-11.70312,-7.193461,-10.7209835,-10.977705
2.0910509,-0.3640391,-2.5951667,-1.1095145,-3.438936,5.4446306,-0.28483623,-2.2978933,-1.9277596,-5.9593797,0.6248453,-1.356084,0.6150724,-6.422805,-0.7139436,-2.3950016,-4.1881304,-4.0846896,-1.3843393,-8.7013035
-1.2454509,1.5080193,0.9879931,1.5264851,2.2329595,-2.956797,-6.605906,0.18737514,-5.0087905,-0.4848356,9.291451,-7.84027,0.19286114,-0.47611746,-3.1513464,3.2197793,-2.3682919,-6.9994426,13.837514,-2.4563043
2.6570215,-2.13446,4.176487,-4.959185,7.995817,-7.370627,1.9348911,0.36254072,-7.051293,-5.044249,12.581491,11.089068,-1.5702823,-8.105575,2.168422,-7.268564,-4.9184213,-12.792044,-6.065872,3.668627
-2.0422971,1.3269339,0.15325163,1.19715,1.3875605,-0.43595394,-6.2999234,-2.8058817,-6.9670577,-3.8787355,-4.09133,-0.5822878,0.3753593,-6.657035,-1.3130784,-3.5175242,-10.009182,-7.890948,-12.601291,-6.7314334
-0.51440513,-2.5945125,8.041808,1.0220209,4.5328493,-6.7507844,0.66450304,2.7233791,1.2170084,0.73292917,-0.571898,-5.249869,3.6393416,-3.5938847,-3.8448524,-0.5625273,-4.2237277,-1.9501759,-10.667523,4.956091
-0.16977522,-0.8576919,1.3638781,-1.3880076,-5.326202,0.5164331,-1.9955118,-3.1017408,-1.3145652,-1.8227831,-4.8990345,-3.415283,0.23487416,-0.60778373,2.7797961,-6.0546064,-4.3063264,7.194973,-2.7796166,-3.5318944
0.3772926,-0.53486806,-0.19678584,2.0896592,0.95843685,0.27378133,-0.9464555,-0.029026076,-1.5678838,1.57567,5.677523,-1.1025208,-0.99349517,-2.0249727,2.30023,1.7871011,-1.2392068,-0.97326654,-3.331963,-1.5997751
-0.7328932,-0.47971633,-0.6966277,-2.647696,-3.0120924,-3.1656106,1.8759633,5.9199142,-2.024367,-2.897404,-11.892348,-1.0726099,-1.2739824,-1.6378659,7.2161217,-7.6486816,0.6534309,-3.1371617,-10.941528,-4.1847258
-3.3295364,-0.19492677,-7.4997854,-2.8656619,-8.52228,-12.663512,-1.4351212,-0.91694564,-2.716749,-1.7876707,-2.253407,-4.1503754,7.4413023,-1.5874294,-5.442344,-8.371368,-15.4436655,-0.8396653,-15.786405,-14.447442
-2.7478828,1.273904,-0.53842974,0.19497097,0.43398142,1.8579844,-4.9399195,2.1129694,-7.2364984,-4.8032827,-3.130827,-3.5968683,-4.7264357,-0.12091481,-9.102055,-2.190435,-5.9143944,0.44919327,-8.467648,-6.181754
-0.8211984,1.7073754,1.5309284,-0.29419377,3.902349,-5.930325,-1.5183446,0.15321673,-4.866319,-2.495155,-0.77498907,-4.8033338,-2.126591,-3.7815702,-0.51416326,-6.646345,-4.6359873,-2.2267966,-2.6799273,-8.899537
-3.530215,2.4547303,2.1920354,-2.0348108,-1.2949163,1.6362396,-3.491836,-5.873358,-6.5729413,-8.396082,-10.518057,-9.193586,-2.733776,-7.978424,-2.095229,-12.834163,-18.078777,-3.8857868,-21.652742,-9.09879
-1.9776164,-0.8071174,-0.6976099,0.90588915,0.39938813,-1.5091822,2.416463,2.8795662,0.6724102,-3.64186,-6.037041,-1.5745403,0.9833581,-4.901366,-2.9960392,4.445394,-7.132473,-5.7356763,-4.9294662,-3.6517804
-1.0109264,1.2845469,1.229238,-0.0853288,-1.2151124,-2.796423,-7.2312794,0.29135117,-3.2847598,0.109956,-3.3071227,6.803432,0.25205323,-4.8260074,-6.525458,11.221869,-1.2384297,0.10105775,-3.033956,-3.3065455
-1.7442955,-0.00020202436,3.2967484,-0.24225056,-6.840188,4.9370975,-3.8473475,-6.235129,-7.248633,5.997621,-1.450594,-9.932699,-0.20598137,0.1824519,-4.136364,-1.3457456,-8.217919,-7.205463,-17.781225,-1.0413861
0.04667583,2.3221207,-0.5070257,3.668482,-4.1990275,1.7955536,-6.9971304,-1.5704173,-10.194329,6.857152,-2.8631136,-5.219575,-10.778762,0.2359137,-10.532195,-1.9325404,0.58866465,-6.9666896,-5.119195,10.180988
-0.13571905,0.2626523,5.5930223,0.6757584,-1.5187987,-1.2682579,2.3961484,-3.153791,-0.107738614,-0.12880327,-4.8312182,3.3128512,0.38589045,-1.9943185,-4.2903104,3.5618956,-5.4459524,-2.6327448,1.8964679,-4.646178
-0.27938864,0.84048706,0.51497793,3.7947176,2.7684577,-0.08053375,2.4094884,0.7223246,-4.0639043,-0.64556926,-1.1816337,-1.5889281,-0.4408636,-1.5017676,-1.9157197,3.249938,-13.777588,-7.3686547,-8.775275,-12.437823
4.7774544,1.1246094,3.3128324,0.07406982,-0.9295695,4.348981,-4.7036757,-4.017044,-1.6738544,-3.6903145,-6.1431785,-7.282917,-5.843816,-8.516348,-2.0559459,-0.457343,-4.3458295,-3.2484467,-6.6906905,-6.3974123
1.0114157,0.6409942,-5.084886,-0.49893293,-2.2934778,-0.50755847,10.520207,-1.4178187,-4.531619,-3.0313115,-6.178586,-1.9684749,-5.502097,-9.933375,-7.3081245,5.3663154,-7.219912,0.3691086,5.4715934,-9.672702
-2.9462848,-1.122612,-0.6983906,3.5239859,0.4903226,-4.5993314,6.1706553,0.40227577,0.60817236,-6.308355,-9.971563,-7.873745,-0.5606284,-8.753735,-8.185517,-0.8382087,-24.450651,-0.49329624,-1.9782352,-16.669022
-2.1848557,-0.6325561,2.2000768,-1.2444067,-4.9978824,-2.2900393,0.43849337,-3.4500124,-6.11912,0.7511697,-5.7531815,-10.8990965,8.387814,-5.3742948,13.645872,10.675362,5.798668,1.9971628,1.4624267,-1.9664987
-0.24664237,-0.5609166,1.0798813,-1.3603791,2.41075,0.42994136,0.6483658,-3.4882104,-3.7904909,-6.8696704,-10.77942,-6.7585244,1.3906864,-12.535917,1.8747559,-6.301215,-2.5914054,7.2399683,-7.2284045,-7.839472
-0.90217537,0.91166943,-2.8958795,6.200904,-5.3774776,-5.7524495,1.1084473,-1.1274612,-9.5976,2.0514822,-2.722733,3.2511635,6.518291,-5.792369,-10.488811,3.2220998,-2.3668933,-0.029731657,-5.238682,2.8517287
1.8259096,-1.27335,-3.0783968,-2.2044647,-0.36083508,-4.5527964,-0.6325012,-0.7680565,-4.169263,1.63948,-8.46494,-4.650193,-3.8651235,-5.490841,-2.9665585,-7.7515016,-4.7020802,4.247925,-4.4673157,-6.1906056
-0.75960493,-1.1212664,0.1577014,-0.023994882,6.972402,-0.81765854,6.0490704,-0.74345225,-3.254535,-3.8340375,-9.415822,-1.6144711,3.0927253,2.6026764,-3.039941,-4.234378,-0.016077522,-3.817896,-5.3413577,10.955685
-3.2561817,-1.0185099,0.36729807,0.92402494,-2.9999783,-1.0764948,5.3082423,1.2256308,14.138763,4.6408744,-3.736452,9.453699,-4.725208,-1.2945172,0.3547424,8.973457,-8.916767,-10.088063,0.2953918,-5.6468825
0.026416894,-0.38595852,2.6776783,-2.3796484,-0.9041767,7.1081986,0.49961036,-0.03754208,-1.9938974,-1.3987473,-3.0790043,-3.0130148,-11.1488495,-0.26276937,1.0053705,1.6653086,-1.1452588,3.3248239,-4.7065945,3.9689007
-0.27641362,1.2455493,-0.19930644,-0.5689571,1.7867903,-5.752978,-3.9654076,-0.8032449,-5.5337825,8.622108,1.1411084,-2.5456052,-7.455752,-1.6550322,2.9585862,-0.6370133,2.262301,-1.5786302,-5.7776103,-5.687729