1.744427,-0.8004169,0.2078065,-1.1360873,-1.7314941,2.5070872,-2.0573425,0.3012007,-2.140706,-3.7846072,-4.868157,-6.060693,-0.24983677,-6.5632944,-2.5319135,-6.2708282,-6.6764445,-2.9168384,-4.5212154,1.5156724
0.6103989,1.3263106,-7.197729,-4.88725,-5.8217072,-1.1990786,-2.4071953,5.2302346,4.9773946,-2.7349536,0.309824,-9.315142,-1.106635,3.6826582,4.096569,-5.9659095,-6.2735605,-11.622956,-7.598217,-5.5643835
-3.3726437,-2.4378252,-0.7133471,-0.4469197,0.5922712,1.7416193,0.77153426,-1.468981,-3.347298,-1.9173248,-3.0033906,-6.4031205,-3.361865,-2.1920943,-4.7404413,-5.9558525,-11.561812,-6.1778164,-6.3834057,-8.225934
-0.6257201,5.223118,0.6439819,-4.5402217,-5.7634416,-4.408387,0.6233603,-1.2500641,0.9288427,-5.3954554,-6.4659276,3.094009,-3.527179,-4.019765,-10.826306,-2.6526887,8.274864,-3.538919,-0.15356748,-3.5093417
-0.87034243,-0.9781989,-0.9821855,2.971376,0.12812515,-2.52788,3.340345,-0.88087237,2.6075974,-2.8095012,0.9050007,1.6945416,0.9402585,4.7641053,-1.9684385,-2.796527,8.127523,-2.3449187,4.055359,1.4224123
0.0849468,-1.291498,2.9016936,0.8533725,1.0582421,0.021283312,-0.26088202,-1.103878,-1.5366434,-2.7471077,-3.4046745,-6.4235163,-1.3888824,-2.3906314,-3.1396048,-0.54081136,-11.262519,-1.9796407,-9.404745,-5.931935
-1.9520823,0.58090496,0.86152303,-0.4060164,-0.6308625,7.1333613,-4.6821404,-1.0979339,-4.0241866,-7.565719,-5.5348496,3.6266348,-3.1038845,-1.8045082,-3.8096776,-6.4573097,-13.161303,-6.5442514,-14.534176,-13.452721
-1.2436713,0.12962528,-0.18232939,-0.3711752,0.616063,-0.25116843,1.4050466,-0.8462641,3.626767,1.8194246,-1.2555606,-1.7254747,-0.3328198,-1.5542606,-0.8908451,-1.4606757,-5.820853,4.49266,-2.1945112,-4.2296977
-0.17091605,1.3555722,1.8753632,0.81328624,-0.65598863,-0.61554235,-1.1268734,-0.5631986,-2.6396708,2.8498096,3.235864,3.0657935,-1.6517797,0.6548414,8.46218,2.3904924,1.0245332,-0.0066393907,0.8515696,0.9822983
1.088432,-4.468014,-12.696222,-15.172902,-9.158347,-14.5409,-12.112921,-8.157086,-5.934675,-7.8440456,-8.436174,-1.4097208,-6.0727277,0.45150325,-6.0616937,3.4388924,-2.3782692,1.004323,-0.28507924,1.7591336
0.2612734,0.41547972,1.9958473,1.2868572,-1.9519422,-0.0087572625,-0.6379925,-0.26490092,-1.4187526,0.36542922,-1.6615343,2.7580576,-2.3864584,-0.12515731,-0.44344148,2.551801,2.3323796,2.8096538,0.33022806,-1.474569
-0.74251413,-2.7483327,-0.5722698,-6.169686,-6.806315,-2.336598,-4.280371,4.486532,-4.926737,2.5350878,3.4362676,2.4202394,-0.30065233,1.2581371,-6.1539245,-4.632987,-3.2759178,2.1719196,10.30661,0.3556516
-1.7888017,0.7067867,-0.67108876,-0.5728103,1.6843398,1.7933179,0.10655719,0.28264096,1.444809,-4.7319727,-2.3139064,-5.5538573,-4.398315,-5.4210505,-4.6295195,-4.359253,-10.686051,-2.5746539,-7.5752378,-8.657851
-0.12317724,-0.18164434,-1.4209759,-5.23959,-4.011923,-7.2926054,3.0438392,-2.1794562,-5.5047107,2.7209153,6.2045994,-4.586703,2.863957,-5.5303397,-3.8055613,1.0897017,-2.3939474,-1.640498,-7.478804,-3.063682
-0.44945684,1.0959213,-1.5191712,-0.51048857,0.7975747,1.6778044,0.81934184,-2.0924969,-3.636939,0.13771215,-3.1436317,-5.263418,-4.6409426,-0.50298417,-2.1668866,-1.4029623,-5.293209,-1.4004796,-1.1173991,-2.4611092
-0.6654633,-0.24449652,-0.0035406456,1.2778435,-0.41104054,-0.66430956,4.0676317,-1.3490756,-2.081089,0.7548149,-2.2656648,-1.0659337,0.89063203,-0.8873747,-0.63095266,3.0699444,-3.3630197,7.4823174,-2.0989838,-1.4468644
-3.007111,-0.8809827,-1.2453213,1.7142705,7.930023,-0.52908844,-1.5482974,-2.1291351,0.19125633,2.9685853,-3.265266,-2.448824,2.2507596,5.6012983,-2.0919158,-4.3174133,-9.165978,-2.4728177,-8.24677,-6.258102
-1.5015762,-0.4567304,0.12957777,0.72126555,2.949948,1.1497797,-1.2979692,-0.89164156,-3.0586383,-5.554147,-2.7771702,-3.4416187,-2.7433257,-3.8333662,-2.9424407,-3.0991304,-6.1692514,-1.6937097,-4.272688,-2.811709
-0.834677,0.023472063,1.694007,0.2612226,3.3923721,-0.43710116,2.0716758,-0.47457018,-0.8805022,0.79488796,-0.94017076,-0.93030673,-0.6472124,1.0820016,3.6716824,-2.356417,-1.4222414,-0.34665218,-0.26486912,-0.27034292
-0.34726936,0.021065574,1.8366728,1.0986205,-0.32344562,-1.0609988,-1.7706614,0.014671762,-0.78538024,4.883927,-0.26223204,-1.1134262,-1.3559728,4.9081006,3.5199344,3.829186,-4.231419,-0.42472774,0.11110082,-2.1262262
-0.02552526,-1.0167216,-0.09511183,3.3217134,1.2133482,-0.19662943,-1.5987186,-0.98872,-4.3433623,-5.6292696,-4.3574834,-5.082561,-3.8912153,-3.905723,-9.488775,-7.9558983,-14.372167,-5.922965,-7.191373,-8.168671
0.5150917,-0.37874353,-0.27506298,1.3164055,-2.3719723,3.347674,-1.273125,-1.4644024,-1.4655178,-4.1733828,-1.8323119,-1.7928854,-1.9576725,-4.155432,-4.7754164,-2.2741354,-4.6584945,-4.4980836,-3.5985167,-2.820452
-1.073736,0.67458135,0.5848572,1.660873,1.0717527,0.8093723,-1.2826056,0.0031110914,-2.9074228,-0.17367049,7.784465,-2.981488,-2.2207272,1.5625421,0.13606223,2.6351209,-3.592979,-2.9571142,12.904142,-3.2177665
-0.10515824,0.29912212,2.4123018,-2.782009,5.380713,-3.34223,2.8358135,0.75537705,-4.3748116,-1.0501227,5.5824957,6.5726495,-0.5579725,-1.5932723,0.48555243,-6.0330606,-0.8516222,-6.3680167,-3.5446377,3.6638708
-1.969855,0.8915296,0.11788978,1.4719949,1.1531094,1.645269,-1.4127645,-2.5949533,-0.689155,-3.757165,-4.119531,-2.6668546,-0.2543739,-2.9298923,-2.9509978,-3.6156423,-12.682506,-2.65909,-6.7361317,-3.9971695
0.17155172,-1.4559889,4.29644,-2.513201,4.934883,-2.0380769,-0.50716746,0.11017773,-0.023827111,-0.46303192,3.5198793,-2.7734091,4.3061805,-3.197305,-0.43296593,1.0001493,-3.6704788,0.06978313,-5.68103,5.727773
-0.8637639,-0.6684434,0.86415064,-1.0468191,-1.842765,-0.24711916,0.46157342,-2.0842507,-1.0915352,-0.05834018,-1.8198595,-2.718929,-2.019113,-0.7608499,2.444291,-4.620925,-4.269567,4.889597,-1.1195886,-3.822736
0.3901028,-0.45353153,-0.20910889,1.5816115,1.2558385,0.39613992,-0.3866951,0.00507798,-1.3042783,2.1331239,1.6470225,1.6521037,-0.5150476,1.306831,2.1878586,1.9184663,-1.8744667,-0.9100124,0.9019845,-0.50804114
-0.066926844,-0.15392242,-0.080691576,-1.2246392,-1.8550881,-3.8564563,2.7002597,3.7647023,-3.4212968,-0.25482258,-5.0025606,-3.9699435,0.72804266,-3.178328,3.6674855,-3.9718456,-1.2826148,-3.8109105,-5.0573583,-7.0112195
-1.5028328,-0.57271445,-6.885619,-3.210849,-8.072737,-11.510958,-1.6371698,0.26275712,-2.5295682,-0.5317267,-0.32433155,-0.5140934,5.5203915,-0.45364022,-4.310509,-6.067594,-11.753543,-4.207215,-12.006225,-15.151589
-2.502268,0.86258143,-0.48693836,0.7036478,0.41562262,1.1161177,-0.20361334,0.7474614,-1.8405265,-2.1588128,-1.3396819,-5.847048,-4.2470636,-1.4686731,-5.114315,-3.2695148,-6.8738985,0.61773336,-4.491154,-4.326965
-0.67485183,0.3350843,1.5488666,-0.0897725,3.1348443,-2.6947062,-1.2896688,-0.22540797,-0.4503944,0.5732058,0.6773628,-1.2040646,-0.43601733,-1.6597524,-1.4074599,-2.0968642,-4.895741,-1.9659011,-2.1929069,-4.706391
-2.7104661,1.769048,1.493065,-1.3710928,-0.8814123,1.0727706,-0.5860967,-2.6986885,-5.4260755,-4.2689366,-5.702137,-5.9726515,-4.298444,-7.731881,-3.3655818,-9.022837,-16.281208,-3.2578619,-14.324182,-12.875012
-1.8893542,-0.52274054,-0.6829807,0.94207376,0.3943819,-1.0293396,2.096948,0.3104041,-1.2198778,-1.3914537,-3.9238822,-4.5792027,2.1970673,-3.500747,-4.338204,0.5815003,-6.6587243,-2.4967968,-5.16571,-2.8767788
-0.5600085,0.79278183,1.4672277,0.47572786,-2.2935398,-5.1871,-4.573393,-1.2204934,-5.486604,2.961107,-2.5713928,6.014416,0.8426212,-0.9507692,0.09619654,6.6536055,-0.8175359,-1.4680263,0.15281624,-0.51984525
-0.95427233,-0.30632287,2.1979063,1.0615625,-3.9286284,3.9210463,-6.1013374,-2.7044578,-3.1286259,2.340113,-3.0315752,-8.136601,-0.14429638,1.1346782,-3.1719234,-1.5075822,-5.9835877,-5.4159255,-10.269085,-2.2618713
-0.57377553,1.4419116,0.6608719,1.7484852,-2.12404,-2.5634508,-2.0036402,-1.3487642,-7.3141813,4.7678056,0.109708674,-4.705964,-7.427078,1.0488487,-4.335044,0.3932357,-1.399541,-5.102048,-0.010958698,7.5582666
-0.12116461,0.2539242,1.4449952,0.3625862,-0.30815992,1.2132442,-0.09732528,-0.8426068,0.37373716,0.82823765,-2.6005523,3.414912,-2.661208,-1.7721533,-1.111612,3.2904081,-5.357834,-0.6473077,1.6867365,-1.7853374
-0.2495087,0.9075336,0.95659107,3.3236244,2.6154258,0.8776554,-0.11333326,0.6043028,-0.705259,0.7858458,0.528219,-4.0398593,0.5534154,-0.88129395,-3.0086157,0.49684605,-12.17816,-4.409004,-4.188918,-4.340463
2.4678047,0.7774124,4.101063,1.249461,-1.6841865,4.4165893,-2.1245956,-2.3929307,-2.449903,-2.8681028,-4.043269,-3.288746,-8.716671,-6.9273095,-5.793193,-0.35700935,-5.6128774,-3.245309,-4.7031407,-2.9918478
0.091794744,1.705821,0.30025187,0.30256835,0.31960785,-3.388639,6.6834607,-1.6536951,-2.3896372,-0.76830125,-1.9076898,-2.640707,-4.84862,-5.097077,-4.4339128,2.5397537,-5.6854935,0.12071454,4.2288785,-2.2641022
-2.518417,-0.012607013,-0.13928209,2.6836445,-0.20138852,-3.7724016,5.8747697,1.4791161,0.030288294,-5.0196342,-4.3529587,-7.746871,-1.1849791,-5.5459723,-8.22241,-4.2258754,-22.711086,-0.0792998,-3.1318638,-18.68758
-1.1896983,-0.21311413,1.8448813,0.86574924,-1.1237267,-1.1439543,-0.2638725,-1.5937591,-3.869373,0.35196626,-1.7057698,-6.418858,4.508151,-2.6495845,10.074058,8.261518,3.2520301,0.046103228,2.739565,-0.553574
-1.1789775,-0.51262623,0.59853256,-0.6992695,2.4477193,0.38295177,-1.6299736,-2.013318,-1.8647203,-3.4625359,-4.782715,-4.692781,0.47256783,-8.858451,0.08603146,-3.2634475,-3.0913155,4.850973,-4.6599717,-7.11229
-0.61937994,1.0517069,-0.91998327,5.751647,-1.2448932,-2.5542383,-1.421185,0.39396736,-2.9660974,2.503766,0.21600461,4.3305798,5.9393063,-2.2662828,-4.6899166,2.179852,-5.2950983,-1.0188682,0.5980745,1.9095627
0.596215,-1.1733506,-1.7859969,-1.0267413,1.180109,-1.544377,0.95231044,-0.63712645,-3.2958543,0.75672686,-3.0018108,-3.8408785,-5.6319885,-1.157418,-1.859718,-2.8336117,-2.3282812,2.0470815,-2.211838,-3.3009949
0.046675965,-0.59674674,-0.072321884,-1.2857505,3.0603094,-0.5994169,1.013153,1.2966095,0.1258909,0.22707197,-1.0756336,0.5379266,1.8034393,1.2269906,0.6195318,-0.6160259,-0.93201476,0.1314519,-2.0610225,6.519807
-1.8092465,-0.63704395,1.2197515,0.8663412,-0.039983187,-0.23441543,1.95657,-1.1203032,11.449751,2.3617244,-4.966668,8.603872,-2.0718222,-0.13839984,-0.8450544,3.4920743,-10.141098,-4.761067,0.45742336,-7.0323677
0.38423645,0.021535693,0.8328213,-1.1797217,-2.0270164,2.1649053,1.4393352,0.027782697,-1.6956699,0.08135468,-1.9294503,-1.0748075,-2.6378877,-1.2748995,-0.47564772,2.6958263,-3.2455218,0.60318446,-2.4041176,0.2325512
-0.33860838,1.1140532,0.2373763,0.70500845,0.2829888,-3.1103792,-2.478183,-0.91535205,-0.96396756,6.522407,0.9256736,1.6697093,-2.5791686,0.08776154,1.7637898,1.3088785,-0.7873766,-1.4585773,-1.9373561,-2.759505