6.9156556,-2.036391,-7.05277,-4.3286347,-5.6522946,7.0001197,-5.625321,2.7221115,-3.396154,-7.4756927,-18.29006,-14.076174,-2.6672022,-10.965678,-7.133526,-12.261429,-10.834985,-9.878852,-4.3144646,4.7419524
-0.7927461,2.0844836,-16.844688,-8.238385,-10.889173,-5.830794,-8.1674,8.65281,9.723385,-5.5336576,5.3000956,-14.720666,-1.9153966,5.1809173,7.7173414,-13.055496,-12.096578,-11.082455,-14.32612,-10.080221
-4.759403,-2.8484,-3.7939973,2.3977115,-0.7452323,-0.6057711,0.6132115,-2.1332188,-5.2363777,-2.7837796,-8.996644,-13.867211,-10.319283,-0.7081702,-10.852631,-4.37544,-19.045834,-5.432064,-13.059157,-13.133946
-3.827598,8.283972,0.26465756,-6.482317,-12.191896,-8.155679,-0.67724484,-4.558793,0.9508144,-15.892966,-12.278127,8.053792,-6.5416017,-9.739206,-14.773813,-7.016047,15.247988,-7.7298155,-7.7428694,-10.256794
1.4618704,-8.317344,-4.876322,5.9943576,-3.518117,-9.218554,4.362415,-3.845736,-2.6268883,-11.400069,-2.8576465,0.5760457,-1.258766,8.312467,-4.7620025,-13.490981,18.564102,-5.347026,9.230637,2.3692374
2.7968633,-0.42812887,5.5986695,2.6820457,2.341522,-6.4838142,-2.1066113,-1.9967006,-0.3211578,-4.4022284,-9.289125,-13.477836,-2.2022827,-2.738324,-7.4879932,-4.101909,-17.17995,-13.494276,-6.629868,-12.935951
-4.9976315,4.3840623,1.0626776,-3.0422926,-1.3077763,12.901455,-6.163557,-2.74508,-5.765658,-7.769829,-9.739864,4.953405,-3.3051896,-6.633973,-10.626889,-17.326248,-15.921693,-18.777355,-15.793754,-22.295538
-5.4744954,2.610855,-3.3702555,-3.5784438,-2.1234477,0.6059927,7.0374837,1.6719009,5.503026,-7.890242,4.094408,-9.167069,-4.149781,-12.337153,-3.5471854,-2.7704675,-9.719134,7.6727514,-13.288474,-7.1983585
0.15329482,3.6953564,-2.172431,0.8075535,-3.106748,-3.2527912,-4.9559193,-11.374074,-10.686531,3.9765997,2.368707,1.9548799,-8.889706,-1.5689082,11.231085,1.0635458,-3.0793805,-6.2441807,-3.7064044,-1.6689577
1.4441782,-4.2348332,-13.380249,-14.849261,-10.532123,-26.485626,-17.04135,-15.575185,-10.264843,-20.213509,-12.104663,-2.6738117,-5.052276,2.8973122,-7.992851,5.9266877,-7.210095,4.2195835,-3.0231068,4.1344037
-0.0010794587,2.033213,-1.7192158,1.76964,-7.5271444,4.689928,0.054868862,-1.4659222,-1.3605076,-6.5718966,-10.268446,3.3361256,-5.590458,1.7833035,-3.609829,0.92579865,5.97573,2.247915,-1.5081961,-0.39166176
-7.480167,-6.7543106,3.4565396,-7.269233,-14.871791,-9.362883,-5.3815985,7.59707,-12.356108,7.8268695,5.2594643,4.915655,-2.1027274,1.1897042,-5.121506,-12.161145,-11.192342,5.8883834,16.34826,-2.8598762
-3.1750124,2.1033106,-8.796617,-1.4949522,7.0944147,2.59338,-1.8143412,0.63501084,-6.0128927,-6.3062057,0.96580404,-5.28247,-2.7224357,-12.451318,-3.6437025,-6.2839923,-13.055151,-9.021932,-17.263466,-15.284511
1.5430326,-0.6243501,-7.26428,-10.190261,-10.923626,-11.7018585,3.2027686,-5.6567397,-3.8463936,5.7831917,12.2996855,-12.3737545,4.6133823,-7.9375896,-9.018975,3.2482283,-10.179976,-5.9046245,-22.339664,-0.5328381
2.250227,2.7914016,-2.5979671,0.9738716,0.41432506,-2.393182,1.067809,-5.787422,-18.064093,1.6517111,-4.299018,-9.979828,-4.165112,-3.3450835,-3.926694,3.1966915,-23.059235,-5.835946,-5.3838596,-8.926508
-2.1942992,-1.4948984,-6.40346,0.87321365,1.0414859,-2.0205262,3.4042609,-5.977401,-7.8605,-0.6627473,-8.909742,-3.7628028,0.15078352,-3.7480214,-4.5284443,1.7184865,-4.465243,10.174346,-6.3298955,-5.225139
-15.57895,-3.1864448,-8.386304,-4.344484,14.017866,-0.10165964,-3.8142152,-4.0773764,1.0154636,6.062575,-7.290611,-4.9289823,-0.751999,12.473245,-8.137417,-11.090605,-8.885114,-3.0166454,-20.125246,-23.597141
-1.3269898,-0.31703967,0.7397194,2.7569332,2.4079192,-0.17012614,-1.7612467,-4.2664404,-10.402541,-9.587877,-2.9574645,-7.2729673,-9.295467,-13.148619,-5.9596763,-3.5448098,-12.932487,1.1499997,-8.787861,-10.9858265
-1.0128126,-0.062276475,2.4855871,1.5424464,4.16337,2.0947266,7.0536857,-3.1101527,-4.8865023,3.0593927,0.85621876,-2.1589484,-1.6496662,-2.9392447,6.995103,-3.030264,-6.4203005,-2.9122293,-8.221152,0.8278681
0.99183905,1.960104,2.3680775,-1.2053111,-7.9701414,-0.95877063,-4.139949,0.5575343,-10.215185,8.567185,0.5577697,-11.142006,-6.2085943,4.334646,6.406469,5.874819,-2.8360014,-6.790875,-9.598597,-3.3145902
2.4678123,-0.7347558,-2.6023822,4.298258,2.3850183,-3.410181,-4.446689,-1.8114085,-8.031427,-6.0108285,-6.034615,-8.178897,-11.050469,-7.8750324,-9.799451,-5.789813,-12.964701,-14.375551,-9.766919,-15.05622
5.2802467,-0.9475515,-6.9801254,3.0586896,-2.746928,7.490088,-3.8222053,-6.593578,-2.0669832,-6.5124803,-2.0328343,-1.1255957,2.974309,-9.076258,-5.2783947,0.5218689,-6.1851873,-4.8802285,1.6239468,-14.109865
-2.5874555,2.0532577,2.228902,-1.206038,-4.448746,-6.730408,-9.039363,-2.5040276,-2.55825,-4.8994756,11.681601,-8.204259,0.3556735,-0.4815845,-3.432071,-2.0023525,-7.5809216,-7.953893,17.050776,-3.5787776
2.9425745,-3.8254807,2.3505437,-5.680098,7.649116,-8.868312,7.1249514,-5.195698,-12.319621,-10.021662,11.227797,16.706715,-6.2128625,-5.089076,7.2609186,-9.585243,-4.570336,-14.108429,-8.704246,5.551777
-3.6459956,0.5466675,0.24416094,0.8911852,-2.695706,1.9175698,-2.901806,-5.088836,-11.8225355,-7.3696723,-7.5060477,-0.9106254,0.5772658,-7.022238,-6.287705,-13.085802,-16.030272,-6.69708,-15.569393,-10.677812
-3.455962,-8.879433,7.8828583,-1.1531993,6.8691893,-10.650041,-6.4456635,5.9652333,2.4727395,-3.3967385,-6.847657,-7.773437,5.6260347,-5.935626,-6.85848,-1.6553241,-3.4004745,-2.533225,-18.81795,11.187429
-1.156119,-3.8045907,4.292286,-3.8774636,-6.568923,0.54701346,2.0506341,-10.654051,-5.6785164,1.3013102,-11.294309,-10.905914,-3.974256,0.13954389,-2.0997198,-3.934803,-10.635998,11.507178,-6.72867,1.6025465
1.6423228,-2.6341503,-3.8276665,4.4664364,3.203284,3.124644,-2.29597,0.9550269,-8.744551,-5.5944605,2.1628468,-5.167573,0.59562165,-9.583512,1.5930648,4.9816585,-2.9548044,-2.6532931,-5.5871496,-10.392352
-2.9140449,-4.74178,-2.3206909,-9.520667,-3.466401,-10.199217,-0.50085014,12.081473,-3.7024534,-2.1771595,-17.244673,-6.1935964,-2.4665375,-7.3283024,11.032924,-13.651393,-3.911519,-7.7093945,-8.583811,-4.1947627
-6.1476603,-1.9956969,-7.9175096,-2.301905,-11.897739,-11.187711,-0.8704376,0.88016075,-1.18482,-1.44013,-1.1653122,-1.3862312,8.406846,-2.3291209,-6.2224746,-17.307772,-17.577152,-2.3875527,-20.27352,-16.215456
-7.4803586,3.1846335,-2.3507092,-2.6609025,-1.8376746,1.0213687,-0.2909891,3.090777,-14.900594,-9.301365,-7.709242,-10.885673,-2.7621362,0.78411746,-10.095692,1.0183436,-8.008598,4.265024,-14.218657,0.22547865
-2.3550985,1.6676631,-0.005633622,-2.5579834,6.677891,-4.5944023,-6.3341246,0.3386554,-11.520691,-5.87308,0.91103065,-9.864445,-3.7883096,-9.880468,-3.88557,-8.935358,-14.035371,1.2712185,-2.5974147,-19.164211
-3.5501106,5.003871,1.8800333,-4.5780077,-3.3708491,1.8278365,-2.1766367,-14.841293,-8.096149,-8.308493,-7.8188086,-14.785793,-2.7700164,-7.1279325,-6.89748,-15.87615,-28.865294,-11.286474,-18.683924,-13.170943
-2.4351768,-2.2814662,-3.0447567,-0.5950079,2.4505088,1.0030031,-0.68314505,1.4948355,0.30383307,-8.81651,-8.897527,-3.3548028,4.145114,-2.0171099,-5.4215665,-3.5225062,-15.658597,-8.878067,-12.399788,-7.162158
-1.6590753,3.4520562,-5.0252886,4.1816525,-2.7019346,-5.136666,-5.447873,-2.1726604,0.15858427,0.30493498,-5.5939665,10.050114,0.5830743,-15.69121,-13.658648,11.019745,4.4027433,-2.2000859,-11.490643,-8.124551
-5.5456653,-2.7943046,3.4096525,-1.2658354,-5.4466777,8.979098,-3.5014162,-9.4984455,-8.20883,8.640586,-7.085606,-16.1214,-2.5789852,2.3512058,-6.130813,-0.19350186,-6.1947303,-10.081017,-28.099583,-3.1510243
-4.41967,1.9458178,0.3378205,4.892024,-4.740533,-5.9695425,-9.61122,-6.7594976,-15.6629305,9.509498,0.04800402,-2.8595734,-12.9303665,-3.731894,-8.962757,2.1885343,-4.6115303,-10.990076,-7.4683027,14.99083
0.29433087,4.8330784,4.0729437,0.3754932,-2.1682544,4.413144,4.794224,-0.33376613,-4.85738,-5.175574,-9.905283,0.2203364,-3.0469635,-2.139091,-1.0686184,1.60103,-5.6729817,-3.6742413,8.252648,-8.971052
2.9284801,-0.46636122,1.8969212,5.024903,1.6477985,2.29187,5.5454803,-4.622337,-7.6250277,-1.7683393,-4.5181084,1.7371688,-8.197587,0.13985114,-3.1638327,0.002839841,-16.058361,-12.510244,-12.846926,-8.651888
4.0965295,-3.1931202,4.3091464,-2.4811559,-0.15240851,4.748296,-5.1247907,-11.5070095,-4.21903,-6.4509954,1.0070884,-10.175202,-8.587101,-9.552562,-4.079875,2.1308331,-14.841524,-8.55609,-8.232753,-10.14998
-1.6237061,-0.17939952,-7.1984477,-4.1066523,-4.290371,-6.6786976,11.942606,-1.0195342,-3.474702,-0.96609515,-8.404008,-11.537566,-5.8213773,-15.839685,-11.255511,5.1413746,-7.810934,-1.8876443,7.5478644,-8.241448
-4.0509334,-0.29600835,-2.7035832,2.9314864,-2.4697914,-4.856146,8.012433,2.6060803,0.5514547,-11.918678,-14.422415,-15.932376,-3.0385885,-3.603292,-7.927184,-6.5430155,-22.947472,-0.9830537,-3.1046548,-14.487884
-9.3536415,-2.4968023,5.799504,-0.86980146,-7.6622915,-1.397318,-0.19651976,-8.133798,-6.616896,-2.3978395,-5.590411,-11.258478,7.3723173,-6.101619,15.785525,12.9053335,5.2110085,-4.4720674,3.5576234,-6.485578
3.435819,-1.5783774,3.9004903,0.4565864,1.2414321,4.5708666,-4.3427525,-4.05519,-1.2546296,-10.281912,-15.382887,-10.756317,2.82537,-14.172674,-1.509108,-6.267587,-7.61747,9.71034,-20.111359,-6.409264
-9.240752,1.1396972,-1.4480618,7.899884,-8.859886,-4.7513485,-5.153379,-5.666155,-11.109253,0.34667292,-7.6750665,2.347137,8.365945,-8.451257,-12.6548195,-0.254167,-6.4947357,-1.5970024,-5.8384023,3.165213
1.3087337,-6.791332,-4.8160243,-4.188074,2.1717157,-2.5618231,-7.04151,-2.538807,-10.205196,-0.18417586,-8.882299,-6.4158926,-6.879348,-5.0149875,-4.849838,-5.845345,-1.7854997,5.9421625,-4.279508,-4.9412813
2.8473394,-6.8564315,1.6016152,-1.339885,7.526107,-5.168569,5.3541784,-4.621112,-11.136015,-4.7029934,-6.5389776,-7.715532,3.2805476,3.6270335,-5.511317,-9.776142,1.6820278,-10.0900755,-10.731868,9.258383
-5.816521,-3.5357082,-0.669153,0.30637708,-6.914582,2.109082,4.406314,-1.3452917,17.710241,6.4269447,-9.425238,14.522864,-1.8798769,-0.56413984,-3.6143448,7.4879785,-12.742909,-18.582691,0.88700753,-4.72795
-0.21947289,0.55447984,-0.7919168,2.4050996,-0.4046833,14.017166,-2.5612962,-0.19879283,-3.2323864,-5.9574037,-1.0340596,-7.9018006,-15.653249,-2.4378438,1.4898591,5.4381475,-0.7945112,6.7422547,-10.045849,9.016226
-2.234948,1.1756912,-0.8291253,5.051196,-3.2958288,-2.6696658,-5.1513453,-5.54972,-9.625133,11.184524,2.6993048,-2.7448356,-15.871425,-6.1204405,4.213963,3.2086124,-0.8587663,-1.9192636,-8.774755,-6.072878