3.124852,-1.07932,-2.055469,-1.9407623,-4.1116066,3.654832,-3.6633794,2.0868862,-4.3718066,-5.3629823,-9.726712,-6.951538,-4.1632624,-6.758045,-6.7318215,-8.915675,-6.872934,-5.777834,-6.70858,4.27291
-0.1832986,0.3896952,-10.833515,-7.5089035,-11.211468,-1.0798748,-5.734035,6.9737754,9.182735,-3.8750997,1.0249958,-7.1751637,-3.2289302,4.71204,5.3989887,-10.833376,-9.534846,-9.086169,-11.130207,-6.623883
-3.3963368,-2.560247,-0.77178836,-0.67665285,0.624854,2.1168375,0.9103929,-1.5489756,-4.6230865,-2.4433527,-4.4763665,-9.4122305,-6.1411076,-2.0121794,-4.7741184,-6.286854,-12.714862,-5.164373,-7.650439,-11.945921
-2.4182088,7.2391014,1.750501,-6.3281093,-7.8616724,-8.25942,0.003506531,-7.010862,1.2364728,-7.6713333,-12.263926,6.49606,-3.8887367,-8.3942,-13.80172,-8.448991,11.801948,-5.947631,-3.1253078,-4.4984045
-0.11787594,-4.0449657,-5.7712817,4.4370465,-2.2131743,-6.7953243,5.4518414,-4.7832713,-3.356752,-9.290444,-4.754203,1.6506175,4.1724143,9.603728,-5.7215586,-5.8588514,12.839749,-1.3708925,7.1406293,0.7709067
0.36208725,-1.7318906,5.5429444,0.8851774,0.31551248,-1.8784918,-5.451514,-0.8639534,-1.0996364,-4.0223737,-2.890631,-11.47576,-2.8524714,0.009278771,-4.423532,-3.5002885,-13.329473,-3.9597313,-7.7468753,-8.945469
-1.8262818,1.3597326,0.9245856,-1.5551001,-0.5751549,11.731435,-7.1645603,-0.57621455,-4.7538924,-11.132926,-4.932096,1.876904,-3.6740606,-4.421518,-3.41977,-11.460638,-13.5092745,-8.844418,-15.53071,-16.853043
-1.2552369,0.19114603,-0.21687742,-0.3865118,1.1221242,-0.55766624,0.18448246,0.6456163,2.1896582,-1.3769284,0.66614664,-2.441454,-4.3754454,-5.1213903,-0.57168794,-3.0979164,-4.249331,6.811327,-7.08377,-7.584561
0.048109595,1.5365424,2.455377,1.7044672,-1.3731287,-2.8537855,-2.0452025,-4.228286,-4.508641,2.2738822,5.955873,5.48635,-2.8928568,-1.6348785,8.291303,0.70031077,-1.6387755,-3.7533264,-2.4271805,1.154859
1.4390154,-4.041901,-13.562018,-11.9197035,-8.957402,-18.320684,-14.78402,-11.481891,-7.789426,-13.52061,-15.156104,-2.2328606,-6.1046777,0.3563248,-8.24425,4.6908216,-3.6909585,1.4921391,0.16720742,2.0314279
0.19408257,-0.18257587,3.7928164,1.6671002,-3.940371,2.2245781,1.4676567,-0.9270487,-1.3659129,-0.96141905,-1.3672814,4.2248507,-4.618287,-0.94128287,-2.1743126,0.9301511,3.9766874,0.20975547,0.1940237,0.54050493
-2.3009589,-5.1940975,2.6990337,-11.254019,-10.307994,-8.280191,-3.9174578,4.63309,-8.878521,4.0529017,5.1794634,3.3320913,-2.6440294,1.1147071,-8.163609,-11.186569,-2.1417732,3.9677856,13.030397,-1.1115007
-0.8571983,1.1489718,-0.98463744,-0.25824127,1.7966954,0.30020592,-1.0968992,-0.64892745,-5.702418,-5.656096,-6.0318313,-8.091584,-5.6072907,-10.597453,-3.663856,-1.2717688,-13.94658,-4.1141543,-11.5942135,-13.919541
0.26415247,-0.5293303,-3.2940826,-8.259667,-7.4807334,-7.788235,2.7431135,-5.4871707,-6.7314262,5.9165745,9.918466,-9.491347,4.086605,-7.862092,-7.1303344,2.1713996,-2.7111835,-1.9295855,-13.360348,-4.603749
0.1146627,1.0976292,-1.6275287,-0.62512225,0.76742595,0.67000204,0.767602,-2.2466533,-5.384166,-0.68856436,-3.0964644,-5.428772,-4.2136264,-2.471671,-3.5683973,0.05182997,-6.1072845,-0.5813216,-0.5991551,-4.0052466
-0.72240263,0.09119286,-0.2320749,0.08143753,-0.70698637,1.1585171,6.181086,-2.473588,-2.9354417,-1.7626681,-8.882307,-3.6962574,0.6282397,-4.7069526,0.040269624,4.547055,-4.4236674,6.8783193,-9.163018,0.4105256
-2.4538052,-0.6507411,-3.5623841,-1.4560959,10.694113,0.28817427,0.41390464,-8.517101,-1.0719292,3.768436,-3.5068977,-3.1959193,3.8341348,8.488586,-8.174582,-9.249456,-7.2477427,-5.958943,-17.346603,-12.571379
-1.581052,-0.9853972,0.15797268,0.7998032,2.9448566,1.1141065,-1.3343377,-1.0923778,-4.4024005,-7.301042,-2.7712321,-7.8174586,-9.8160925,-10.057421,-1.6685699,-3.646247,-7.326583,1.1843992,-7.046404,-6.4628005
-0.84022444,0.6456352,1.1789585,0.103776604,5.0553694,2.0399847,3.6321073,-0.66194814,-3.8771803,1.2792289,-2.6991243,-2.7634673,0.905465,-0.89716786,7.4750896,-6.130636,-2.6609888,0.40148443,-3.1651545,-0.70688254
-0.47929132,0.4631181,0.9780766,1.1242123,-0.67574304,-3.435529,-2.994695,0.052763596,1.3979571,7.0524435,1.2934445,-2.8685544,-2.9156632,3.02989,2.6169875,5.523346,-5.592652,-5.3204904,-5.3460107,-5.2834296
1.7241919,-2.9129064,-1.4469262,4.2472324,1.0261179,-0.115744404,-2.4384668,-0.87469906,-4.9932437,-4.6196976,-2.6196697,-7.4327445,-8.438182,-11.021843,-10.9131975,-5.6024556,-11.737107,-6.27357,-9.222097,-11.888021
2.681001,-1.0862122,-3.3631487,1.767343,-3.4408484,6.2227125,-2.9221766,-2.433706,-1.6678506,-4.8237214,0.56533706,-1.2427016,-1.6264108,-8.52113,-0.31304637,-2.4381528,-1.3454674,-4.1358247,1.5989634,-8.181543
-0.6458021,1.8471104,0.22813705,1.5363046,2.1925194,-2.7668645,-9.238306,-0.037128482,-7.8860993,-1.1770058,9.357093,-6.830123,0.7013678,2.4123194,-2.9001808,2.3407683,-4.9449763,-6.7180123,15.355939,-1.6629277
2.6681125,-0.24780333,2.0777895,-4.9888535,8.045545,-7.4907603,4.087321,-2.377671,-6.3112407,-5.164114,12.044844,11.68274,-2.2137058,-8.004676,0.064890765,-8.738033,-2.2120218,-13.015258,-6.134099,4.5350804
-2.3786485,1.9892027,-0.4555633,1.8823634,1.3742166,-0.15589195,-3.9563527,-3.160983,-6.643913,-4.236179,-4.1171036,-0.33998775,-0.06894747,-3.4232256,-1.7457236,-6.123753,-12.863281,-7.3782215,-12.550727,-9.680234
-0.18520811,-3.2163968,6.362842,0.8034892,4.611037,-6.9660373,-2.7273796,4.0372286,2.4528854,0.37538427,-0.5823074,-5.5067735,5.734842,-0.8461798,-6.1117682,-4.058651,-5.2606697,-3.3055263,-11.865878,5.4723945
0.11242561,-2.3172293,1.0490129,-1.5108162,-5.341763,0.6866117,-1.3826823,-3.0828147,-1.4584972,-1.7709211,-5.7101827,-4.6266627,-0.72859836,-2.8714993,1.075107,-2.528832,-4.399269,7.9340796,-5.8019214,-2.9273498
0.37727794,-0.5354095,-0.22456072,1.9772726,1.0061789,0.25903767,-1.4060396,-0.03845073,-1.5279177,-0.2267559,5.677837,-1.5785321,-0.14790432,-2.0386915,2.489393,1.7843493,-1.4032671,-0.9257265,-3.2567306,-2.1594398
-0.5212164,-1.2219276,-1.4117737,-2.0028496,-3.037294,-4.593647,-0.7282893,8.251285,-4.95994,-2.8966544,-11.940738,1.7794092,0.1159955,-1.3913125,6.6618075,-9.373984,0.64074975,-3.169565,-11.444531,-4.1831584
-4.258238,-1.8880223,-7.8471713,-1.2961043,-8.432989,-10.094076,0.40162998,-0.92936695,-2.8598232,-1.9796658,-2.206347,-4.2863746,5.993247,-1.712083,-5.477655,-10.432056,-15.419233,-0.41990787,-15.739924,-14.465695
-1.9596487,0.95434827,-1.1366596,0.47025514,0.43711054,1.5836675,-2.947388,-0.01620645,-10.296662,-5.147245,-3.184175,-4.1426587,-5.221278,2.6742327,-9.0407505,0.9066396,-6.4916053,2.5373576,-7.9494095,-8.27254
-0.84842867,2.4442446,1.4647493,-0.14835499,4.0511675,-5.818672,-1.8386116,0.12930714,-5.0478916,-2.489415,-0.7802171,-4.787438,-6.438521,-7.8458996,-0.705108,-8.536184,-7.8949065,2.2605782,-2.5304418,-9.109292
-3.3775306,2.6896164,1.8702793,-1.4105603,-1.3663808,1.302936,-3.2926667,-8.060771,-6.1722784,-8.53675,-10.538774,-9.640212,-4.5655117,-2.5823345,-2.1172738,-10.536527,-18.90671,-2.6195881,-21.537062,-10.43167
-1.9800622,-0.5162126,-0.96251106,1.2784231,0.39831907,-1.5338881,1.2841041,2.255769,0.6005745,-3.581051,-6.044601,-1.7224612,1.6886618,-5.4379096,-3.0192227,2.5744836,-7.2957973,-5.7386527,-5.3835545,-3.7449887
-1.0824236,1.831585,1.1597033,1.2605164,-1.2234371,-2.4662771,-4.187088,-2.8916738,-3.2926693,0.08410463,-3.273519,6.5921435,2.9280941,-4.846946,-6.282976,8.976257,-1.4402251,-3.9996912,-3.8040133,-4.1707554
-1.5738077,-1.8270077,4.2452626,-1.0631245,-7.451265,5.403192,-2.0896463,-6.2378073,-8.034187,5.5755577,-1.5013644,-8.849385,-1.741554,2.4233003,-4.108569,-0.26564676,-7.1440363,-8.667946,-16.23368,0.11587969
-0.1421228,3.528824,-0.40406376,1.9960022,-4.5547085,-0.49995747,-9.777034,-2.0767093,-13.3972,7.569989,-2.8931103,-5.71595,-11.725974,1.403925,-10.526359,-0.8782627,0.40033278,-10.073242,-5.0394063,10.82147
-0.13923526,1.7837901,1.7712535,2.0190895,-1.5323936,0.75963205,2.0346124,-3.1534479,-0.11129431,-0.14646406,-4.8546696,3.2051458,0.3660651,-2.0267892,-4.2884326,3.5750344,-5.584773,-2.781402,2.104888,-4.671013
-0.29310167,0.66914916,0.79168177,5.225545,2.7334611,-0.092214786,-0.11369084,0.12727717,-4.1829586,-0.5045878,-1.1803473,-2.8860276,-3.9459167,4.515973,-1.7695394,3.272119,-14.356749,-7.636068,-8.666894,-13.0254345
5.833535,0.049038038,3.0482695,0.004094043,-1.3956492,5.322015,-5.32173,-5.510716,-4.829562,-4.02419,-5.848206,-7.3113923,-6.293377,-8.608512,-2.0647986,-0.0067825033,-4.686203,-3.2997637,-6.756452,-6.440205
0.72189707,1.1478121,-3.4411018,-2.6479704,-2.9623637,-3.7153697,10.011195,-0.6092553,-4.629128,-1.7498736,-6.1016226,-1.9156028,-6.1622105,-11.543945,-7.3258314,2.9532423,-7.4683104,1.2016184,4.8097515,-7.2053847
-2.3289714,-1.1311374,-1.2562371,4.10476,-1.1133707,-5.8174067,7.348768,3.2277825,0.4563836,-6.5331182,-10.111811,-12.933328,-3.429412,-4.721823,-8.121617,-1.5275779,-24.872072,-2.1328464,-2.0021167,-16.022326
-2.3408613,0.98489034,2.4968424,-0.9653114,-3.61412,-3.1689537,2.6435845,-3.3558679,-10.246839,0.28562355,-5.9838986,-11.809618,4.4692945,-3.514458,12.6884165,10.668707,4.7344074,-1.8357753,2.046409,-2.1440842
-0.4707744,-0.7105523,0.96410763,-1.4115334,2.6916652,0.82718277,-0.022088023,-0.18213943,-1.9715347,-6.8803024,-11.126973,-6.5732107,0.35724822,-14.09276,1.5788944,-6.46351,-2.828748,8.4343,-9.737335,-7.827867
-1.6208476,0.23383118,-0.78091216,8.076322,-6.7098823,-4.8183713,0.59369445,-2.833963,-10.7982,1.8535061,-2.7971327,3.9490502,6.4334745,-5.956358,-10.404128,0.67359626,-2.6890888,2.1305525,-5.210536,1.6261715
2.5672147,-2.0092337,-3.7353203,-2.1486197,-0.33813208,-1.4325577,-0.0958149,-0.5077527,-4.222225,-0.28762648,-8.483138,-7.339762,-4.6693172,-6.23962,-2.68306,-6.9901156,-2.3060832,5.7706842,-6.8556724,-6.1732597
-0.7954393,0.07164555,-0.71994555,-0.6290601,7.010755,-0.7022239,5.2610126,-0.7228042,-3.2718,-4.118017,-9.447723,-1.631085,5.397976,2.670209,-3.042744,-7.221619,-0.021329643,-3.8549502,-5.347356,10.925678
-3.4711504,-1.1667796,0.10041227,3.2748034,-2.0404904,-2.361853,4.9578104,-1.8538349,16.010181,4.6600266,-3.978168,12.610899,-2.427512,-0.71589404,-2.0812168,6.164629,-9.33471,-12.872198,0.34223893,-5.6882772
0.10632669,0.3598903,0.88210565,-2.317188,-1.4840618,6.2934227,0.77112436,-0.04789091,-2.4196508,-2.4970684,-1.276396,-3.536558,-12.208756,0.5382152,2.8677514,1.9909598,-1.2095407,3.9460232,-6.8679204,3.988726
-0.26886687,1.3056849,-0.29320782,-0.38286874,3.2472079,-6.25206,-3.2415023,-1.2650459,-5.521738,8.664191,0.90364856,-2.905943,-7.957244,-1.690274,2.9596956,-0.605283,2.2802227,-1.7228273,-5.589502,-5.4627824