1.6422762,-0.7056791,0.23572057,-1.0907505,-1.6168096,1.9937038,-2.0735958,0.29908136,-2.0826788,-3.7413628,-4.8301926,-5.418238,-0.7231728,-6.5052524,-2.6353762,-6.05147,-6.785276,-2.8889272,-4.447122,1.5133476
0.8303307,1.5568832,-5.703768,-4.164431,-5.60354,-1.8339176,-1.1218543,3.739786,4.5670724,-2.401157,0.053003605,-9.289653,-0.4949267,3.5877767,4.6081057,-5.865622,-6.242498,-11.618128,-7.5302353,-5.233988
-3.3714602,-2.4317825,-0.71751326,-0.4463591,0.5917905,1.7408837,0.7720443,-1.4685236,-3.3556883,-1.9104632,-3.0129979,-6.4008994,-3.3201768,-2.1638021,-4.6859264,-5.9553366,-11.635025,-6.1776853,-6.3757443,-8.214641
-0.45350945,3.7525456,0.70640904,-2.5563517,-5.4214063,-4.0380325,-0.64984995,-0.9957028,1.1327573,-5.208495,-6.367694,4.2564096,-3.0880382,-3.7529826,-10.784346,-2.6113994,8.084452,-3.5229702,0.1237192,-3.4597418
-0.8403799,-0.60537744,-1.5538409,4.0257387,1.900278,-2.2488008,2.3482022,-0.7810509,2.9627445,-2.185832,0.639525,0.28777,0.8787803,4.207306,-1.9994134,-2.7516925,6.410296,-2.0694222,3.7610037,1.9110839
0.08026087,-1.1633372,2.7525797,0.83126354,1.0820475,-0.074271835,0.14223078,-0.9819063,-1.6816975,-1.2074428,-3.4083226,-7.5469832,-0.7997735,-2.2520542,-3.178188,-0.5784616,-8.065447,-1.9914162,-8.724283,-5.5060487
-1.8683093,0.66321605,1.0796324,-0.41382742,-0.33105856,5.230643,-3.9161963,-1.1241018,-3.9560192,-7.281899,-5.2095823,1.3211733,-3.0980055,-1.7118604,-3.8138037,-6.4648213,-15.907648,-6.5416527,-14.505468,-13.410327
-1.2417709,0.12753092,-0.1812204,-0.37043592,0.600431,-0.25007677,1.4358715,-0.84368616,3.604121,1.8225071,-1.2551008,-1.6937208,-0.3291751,-1.5208305,-0.88706154,-1.4538463,-5.858738,4.426372,-2.1294253,-4.2209754
-0.16612828,1.3512295,1.8607715,0.8862348,-0.6490497,-0.803936,-1.1009586,-0.55496764,-2.6327426,2.9795027,3.1708317,3.039443,-1.5082537,0.6849151,8.041448,2.3964245,1.0431353,0.0049091047,0.87655365,0.9692001
0.81468683,-4.051038,-12.067443,-14.887466,-9.053497,-14.705379,-11.960516,-7.9185896,-5.9131413,-7.748544,-8.432418,-1.4679582,-6.1351027,0.42952582,-6.0872426,3.4278038,-2.3716657,0.9825907,-0.4858788,1.779189
0.26729015,0.4486668,1.8260244,1.3749822,-0.8651459,-0.20637663,-0.57831347,-0.25698248,-1.4364516,0.5219501,-1.6936495,1.2908888,-1.1243521,0.12373465,-0.43226534,2.559349,2.6102455,2.824446,0.34295443,-1.4826574
-0.5632161,-4.199108,0.758006,-5.8121715,-6.6247063,-2.3262239,-3.7180316,4.013707,-4.9645395,2.8474298,3.1661825,2.745179,-0.04659694,1.3867522,-6.1786213,-4.555845,-2.9768245,2.1622448,9.883005,0.577796
-1.7815701,0.7155894,-0.6596544,-0.58802676,1.6507294,1.7974138,0.021366552,0.44185883,-0.94492334,-4.6847606,-2.328779,-5.482806,-4.2858663,-5.223497,-4.4148164,-4.3728676,-10.721908,-2.5849242,-7.5479336,-8.613039
-0.16048735,-0.12514567,-1.4163152,-4.652203,-3.9853904,-7.3506637,2.7592301,-2.0014682,-5.4078526,2.7914298,6.0312133,-4.5403323,2.7792225,-5.453118,-3.6385312,0.95910084,-2.5079885,-1.6989549,-6.9059105,-3.0176244
-0.44767907,1.0895468,-1.5165135,-0.5118424,0.79777724,1.6783162,0.8331296,-2.0542428,-3.6085331,0.14877534,-3.1512594,-5.2486653,-4.5804725,-0.4774713,-2.1667187,-1.4102097,-5.3211164,-1.4039285,-1.1192243,-2.4578366
-0.6644776,-0.24203654,0.0017826052,1.503983,-0.5094518,-0.6924001,3.723104,-1.3379792,-2.0696943,0.76721096,-2.2392604,-1.0576128,0.69095325,-0.8808687,-0.6330474,3.0697746,-3.3823774,7.375756,-2.0256937,-1.4239028
-2.9581301,-0.7872704,-1.168982,1.9799196,6.5887284,-0.45267847,-1.1899972,-1.943567,-0.00010261586,2.9141693,-2.983704,-2.4805436,2.5995457,5.2734885,-2.091418,-4.2960725,-9.373056,-2.462543,-8.053226,-6.128911
-1.501118,-0.4555729,0.1295842,0.7191073,2.950234,1.1499999,-1.2976956,-0.89038014,-3.0719411,-5.536371,-2.783472,-3.4247189,-2.695429,-3.7569158,-2.937171,-3.0906,-6.2062616,-1.6995447,-4.2738204,-2.772548
-0.8338521,0.021968288,1.6933242,0.2748645,3.356453,-0.42943385,2.0950687,-0.47334898,-0.88654643,0.80243486,-0.9450115,-0.91840076,-0.5849009,1.1112872,3.5265255,-2.3543556,-1.5883095,-0.34775394,-0.26122907,-0.25510204
-0.34378743,0.039239094,1.1021291,1.1988724,-0.3095465,-1.1274906,-1.7639471,0.02006792,-0.7325492,4.758369,-0.23084633,-0.7485617,-0.5079308,4.9211283,3.154147,3.7748866,0.4455054,-0.41931182,0.13568877,-2.09403
-0.075073324,-0.9435856,-0.11175863,3.2951384,1.230712,-0.17475682,-1.7937533,-0.91126317,-4.4484625,-5.285324,-4.5128903,-4.9749036,-2.3536875,-3.756666,-9.735897,-8.053528,-15.86886,-5.9304867,-7.4468265,-8.140924
0.47922832,-0.34450808,-0.2095023,1.2772299,-2.3670535,2.8901312,-1.1206031,-1.4477502,-1.3316973,-4.150399,-1.8171513,-1.8188721,-1.998356,-4.108204,-4.7480373,-2.2655733,-4.6755934,-4.4965816,-3.6176124,-2.7790813
-1.0646826,0.6689915,0.58252084,1.6595123,1.0732107,0.87209857,-1.3378001,0.030496605,-2.8821523,-0.034633357,7.271047,-2.8041022,-2.0314565,1.5598882,0.1144497,2.469693,-4.1866636,-2.9417167,12.542248,-3.1267893
-0.07821296,0.0013057762,2.7145622,-1.9288912,5.078859,-3.2778995,2.3867228,0.86177784,-4.201337,-0.95016617,4.983265,5.93296,-0.05848136,-1.3970098,0.31860092,-6.013402,-0.5117856,-6.3104353,-3.041874,3.4349236
-1.9618726,0.75571376,0.22425571,1.4736116,1.1538593,1.6351931,-1.3318993,-2.428959,-0.52121335,-3.7332337,-4.119525,-1.8166535,-0.23369317,-2.90798,-2.9555802,-3.6830847,-12.683435,-2.690687,-6.7113113,-3.9971209
0.16035916,-1.305608,3.4363399,-2.1971836,4.4493213,-1.695086,-0.20781325,0.10938228,-0.270548,-0.30725837,3.7944403,-2.7590752,4.091488,-2.7228808,-0.1071845,1.8248461,-3.671948,0.06790346,-5.524616,5.4428325
-0.8613064,-0.6590063,0.7763766,-1.0170597,-1.8176408,-0.27653393,0.4445687,-2.080528,-1.0894136,-0.046967477,-1.824042,-2.6700535,-1.218749,-0.71943164,2.4571085,-4.6159024,-4.226879,4.734001,-1.075437,-3.8258038
0.39023158,-0.45222816,-0.20797795,1.5657463,1.2634796,0.4002673,-0.39078963,0.006188832,-1.3086938,2.144906,1.6259711,1.6517198,-0.3592174,1.3153566,2.1858177,1.9179491,-1.8819221,-0.91074646,0.91192675,-0.49002394
-0.068917595,0.005989512,-0.12165501,-1.1482061,-1.3574365,-3.8249424,3.2960908,3.3923197,-3.3382835,-0.12120788,-4.877092,-4.0496883,0.050227545,-2.9856884,2.9971066,-3.9151769,-1.2930385,-3.8216202,-4.969508,-6.942496
-1.4070206,-0.7669869,-6.253041,-2.0432935,-7.861524,-11.489538,-1.3360486,0.26537555,-2.4810195,-0.4222065,-0.24226664,-1.8937984,5.08085,-0.4396789,-4.2782316,-6.0652294,-11.816053,-4.246022,-11.899744,-15.017032
-2.488252,0.74010134,-0.39689535,0.7091273,0.41583306,1.1142621,-0.1389365,0.7220201,-1.8309454,-2.099747,-1.3551093,-5.4673495,-4.12898,-1.411594,-5.084217,-3.318301,-6.9957223,0.5250996,-4.421762,-4.320237
-0.6698531,0.4623484,1.5535259,-0.076008186,3.050946,-2.701753,-3.7825587,-0.21265246,-1.2789913,0.60368836,0.67462844,-1.1727948,-0.4439675,-1.4508455,-0.7329871,-2.1059992,-4.9465847,-1.9683709,-2.1885061,-4.6767144
-2.616577,1.5369906,1.5723994,-1.3103577,-0.8975116,0.92134005,-0.55854654,-2.2154477,-4.856413,-3.9997075,-5.604103,-4.2388535,-3.4352648,-7.4762115,-3.6339998,-9.002747,-16.091314,-3.2862847,-14.192942,-12.5718775
-1.8881556,-0.5147088,-0.6817932,0.92815936,0.401711,-1.0282679,1.9242405,0.3187033,-1.3110837,-1.3406292,-3.8776615,-4.4912086,2.3275552,-3.4534109,-4.312382,0.5904289,-6.7081017,-2.4977632,-5.1133685,-2.6488326
-0.55830425,0.7949691,1.47037,0.48073515,-2.2876754,-5.1982408,-4.5254197,-1.2186837,-5.495269,2.99755,-2.4559712,5.7262735,0.6600424,-0.94882566,0.1089805,6.482866,-0.69598347,-1.4679723,0.21537112,-0.5086778
-0.92838216,-0.040067665,1.8902487,1.0354455,-3.6798248,3.1336062,-5.565321,-2.5730622,-2.9757245,2.2872763,-2.6912668,-5.549254,1.4828031,0.85904306,-3.208575,-1.5746812,-7.652511,-5.392912,-10.051875,-2.180839
-0.51600194,1.2482312,1.151263,1.2186326,-3.0002942,-2.316334,-3.2345264,-1.2051792,-7.0774493,4.80896,0.30711246,-2.5580482,-6.929402,0.586341,-4.4391675,0.6381522,-1.2408724,-5.069338,-0.016227651,7.0419846
-0.1201728,0.27833176,2.15465,0.69110566,-0.27005106,0.29592684,-0.08105281,-0.8420384,0.45540607,0.84190863,-2.6064818,0.9885949,-1.1031545,-1.7124186,-1.047966,3.2578378,-3.7227733,-0.6481888,1.6462852,-1.7775677
-0.2457901,0.9101141,0.96510667,3.2073689,2.681738,0.8952476,0.054896228,0.6286199,-0.8639861,0.84556085,0.54805195,-3.9473188,0.88286626,-0.76226294,-2.939464,0.45720962,-12.1983795,-4.4115567,-4.1549854,-4.241263
2.3774042,0.92947954,3.5698783,1.3950152,-1.5519954,4.509993,-0.6569749,-2.2446475,-1.8501153,-2.7974272,-4.0798736,-3.2955787,-8.204564,-6.8041525,-5.771127,-0.54620564,-5.534248,-3.2299316,-4.9124236,-2.0854301
0.19559236,1.546635,0.31570172,0.98343414,0.43155822,-3.2987897,5.906386,-1.1191143,-2.0077443,-0.77104527,-1.8018988,-2.3600168,-4.6731634,-4.7088485,-4.5507917,2.34853,-5.2673187,0.25104475,3.7928371,-2.0166755
-2.4667246,-0.27289414,0.30111295,3.0022235,-0.087230004,-3.7083542,5.32809,0.56001604,0.09366611,-5.2111993,-3.9921956,-7.022438,-1.7273078,-5.0466576,-7.539126,-4.3577785,-22.639267,-0.28471226,-3.0738988,-18.539183
-1.1456451,-0.15719756,1.7215434,0.90590024,-0.9694329,-1.2578521,-2.0716453,-1.3270195,-3.812684,0.9376006,-1.5283859,-6.2663956,5.5032415,-2.5237632,9.040408,7.6819735,4.7282944,0.17249328,2.0496378,-0.35646573
-1.1745535,-0.467434,0.6769346,-0.6912065,2.1716218,-0.02149474,-1.6108798,-1.9867058,-1.8195404,-3.2270286,-4.5551944,-3.9334283,1.1355023,-8.596719,0.19500919,-3.1352067,-5.68656,4.6454167,-4.7039127,-6.9531035
-0.54866153,1.069366,0.5377229,3.833437,-0.9402983,-2.9558861,0.33029115,0.3843863,-3.032485,3.1944137,0.7939512,1.5242585,5.7556467,-0.8808813,-4.241911,2.9832754,-5.484041,-0.7648307,1.1795778,3.2432463
0.565514,-1.1442959,-1.7898914,-1.0253489,1.1528867,-1.5147654,0.9844523,-0.62680006,-3.3052807,0.75897557,-2.9981117,-3.8064606,-5.6245317,-0.97336805,-1.8593369,-2.8176856,-2.3333795,1.9005551,-2.0250773,-3.2190738
0.052553836,-0.5905976,0.07220443,-1.1397452,2.4850264,-0.9042035,1.0522172,1.2918794,0.10296568,0.2937647,-1.0468053,0.5703054,1.682756,1.2824032,0.6213962,-0.5591328,-0.9477068,0.13579942,-2.0440712,6.208471
-1.8438226,-0.71290207,1.3307194,0.8719568,-0.032660607,-0.27128989,1.8121699,-0.95738685,10.624497,2.2036324,-4.810965,8.08286,-2.073478,0.2979296,-1.0511398,3.2741249,-10.093671,-4.7331057,0.7583951,-6.992831
0.38482353,0.022423439,0.82511896,-1.154906,-2.0236108,2.109426,1.4629449,0.029978536,-1.7052749,0.09012804,-1.9365737,-1.037303,-2.5671058,-1.2657385,-0.46528316,2.6954796,-3.2511988,0.5554759,-2.4033048,0.121346235
-0.33757302,1.1107224,0.2399813,0.69837,0.29995528,-3.1150155,-2.4271529,-0.90329874,-0.93908584,6.2599573,1.0074375,1.6580487,-2.3250482,0.47156373,1.6780841,1.3090693,-1.1803298,-1.4547416,-1.8605682,-2.7069516