1.5075486,-0.61148864,0.26561347,-1.0144655,-1.5616922,1.4841757,-1.8020645,0.33184475,-1.9885931,-3.4793444,-4.819544,-4.778518,-1.1241838,-5.250121,-2.0174286,-4.792285,-5.899595,-2.5648966,-3.8123283,1.0908934
0.8206426,0.93790585,-4.5051374,-3.6764934,-4.550965,-0.88643193,-1.1890979,3.2065997,4.661065,-2.076808,0.17368117,-8.711189,0.04430336,2.606689,4.897375,-6.098598,-5.0719223,-11.183771,-6.9746656,-4.8006783
-3.369787,-2.4285512,-0.71848863,-0.4457007,0.5917009,1.7373881,0.7725181,-1.4671493,-3.3604898,-1.8724662,-3.0156617,-6.381256,-3.1845722,-2.115609,-4.6946087,-5.957696,-11.626341,-6.1852884,-6.377769,-8.079335
-0.52468556,3.315837,0.85892683,-1.7102722,-4.93664,-3.5447328,0.255678,-1.1868855,0.9095659,-4.9837327,-6.3916416,4.0275426,-3.0845673,-3.0384924,-11.26864,-2.5773277,7.39868,-3.2843025,-0.23148948,-3.1100295
-0.82879543,-0.28785777,-1.0984026,2.2794554,1.3529334,-2.3905709,3.7930996,-0.61501116,1.6849558,-0.5798381,0.23649351,0.44629574,-0.80130863,2.0696642,-1.7936491,-1.746163,8.469907,-1.4141346,4.5953174,-0.70737994
0.08984605,-1.0623517,2.5974855,0.81043094,1.1576835,0.02908049,-0.19183724,-0.93413067,-1.349875,-1.5294541,-3.5206609,-7.6448355,-0.17895116,-1.9071476,-3.047709,-0.6943366,-8.069965,-1.834297,-8.647087,-4.1479588
-1.76976,0.4332421,1.2256995,-0.31100747,-0.6787287,5.0304847,-4.620462,-1.23868,-3.354817,-6.174759,-4.633856,0.6606771,-2.8319848,-1.2626365,-2.8993182,-4.381703,-15.905807,-6.488609,-14.447879,-12.487702
-1.2399794,0.124988735,-0.17995723,-0.36877298,0.57572985,-0.25125927,1.4655794,-0.84097826,3.550947,1.8346236,-1.2528971,-1.6834017,-0.23246935,-1.4464096,-0.89061,-1.4680148,-5.683765,4.362846,-2.0473952,-3.6775377
-0.16338398,1.349778,1.8382581,0.927551,-0.6463861,-0.79391897,-0.99066097,-0.5506285,-2.6243336,3.066821,2.7346919,2.9672136,-0.8083319,0.7962578,7.907868,2.3898888,0.3822922,0.006173697,0.9379729,0.96820813
0.30747765,-4.1640515,-11.303722,-15.059598,-9.110462,-14.5954075,-12.132092,-7.7772064,-5.968201,-7.4660497,-8.375936,-1.4224086,-6.242031,0.41056344,-5.4406185,3.4728823,-2.3631513,1.0688345,-0.34488362,1.5038773
0.27154234,0.4713589,1.9660659,1.4896437,-0.5049138,-0.1814495,-0.2607083,-0.25094968,-1.4346092,0.6137855,-1.4340792,1.2653853,-1.0903463,0.1740808,-0.27407634,2.5331147,-2.3464358,2.8017282,0.36311615,0.3977355
-0.47700247,-3.29564,-0.41685984,-4.1113505,-6.0759926,-1.3985407,-3.2942555,2.9227893,-4.0625167,2.8121765,3.3869925,3.5669508,-0.03649667,1.4574472,-6.0519314,-4.2515035,-2.1750605,2.898817,8.58695,0.35043705
-1.774743,0.68352497,-0.6445229,-0.56900775,1.5933737,1.8256831,0.0710812,0.4591221,-0.9646748,-4.573724,-2.3717804,-5.353926,-3.9922879,-4.8882494,-4.4194393,-4.274249,-10.647209,-2.6812675,-7.652395,-7.5714955
-0.22164842,-0.11958946,-1.4598627,-3.8898072,-3.489991,-7.417452,1.8234949,-1.7919765,-4.8539767,3.120328,5.900631,-4.5265203,3.0205724,-5.02049,-3.2895606,0.08900133,-2.2934296,-1.0964212,-7.1533446,-1.7036488
-0.44674045,1.0800599,-1.5129155,-0.5107531,0.79815567,1.6877041,0.8443793,-2.0329394,-3.5842593,0.16157058,-3.1560173,-5.22019,-4.4637837,-0.40137285,-2.1772292,-1.4147608,-5.547674,-1.4612911,-1.0745875,-1.8333504
-0.66250396,-0.23995657,0.0141707035,1.339043,-0.4279414,-0.79344237,3.6348603,-1.3218119,-2.0578747,0.8078797,-2.1659958,-0.94131166,0.94741464,-0.73193455,-1.1191051,2.945559,-3.8686483,7.2089767,-1.5860622,-1.091052
-2.8937533,-0.7471875,-0.78152514,1.2942783,5.0236573,0.59265006,-0.8735029,-1.5684072,0.23058203,3.108898,-2.5206525,-4.089672,2.6642032,3.8267717,-1.2464097,-3.0120542,-8.940099,-2.2381535,-7.674446,-5.396733
-1.5004543,-0.4544413,0.1297024,0.71499944,2.951525,1.1502326,-1.2947307,-0.8888259,-3.049808,-5.5019536,-2.909846,-3.4162674,-2.5223286,-3.5417411,-2.9592893,-3.0106518,-6.298508,-1.771347,-4.1380944,-2.7011058
-0.83287925,0.021358883,1.6943195,0.2894457,3.2529156,-0.40260378,2.0422342,-0.4714821,-0.89332795,0.8213291,-0.96565896,-0.8956656,-0.23786373,1.1489888,3.1979024,-2.3647275,-1.7382226,-0.36374843,-0.28355518,-0.22148131
-0.34066492,0.044726126,1.0202,1.2626172,-0.28780183,-0.9960486,-1.6981325,0.021937834,-0.6353868,4.498009,-0.08979168,-0.42945194,-0.11596795,4.9671464,2.8427274,3.2714465,0.44039232,-0.42063665,0.13231461,-1.5625623
-0.142463,-0.8429884,-0.2702868,3.1085777,1.3211019,-0.13289897,-1.4253366,-0.90181065,-4.527243,-5.0911584,-4.2990303,-6.3364816,-1.5960381,-3.1673105,-9.478755,-7.720622,-14.181631,-5.4458103,-7.83283,-6.1010714
0.4516199,-0.34081924,-0.15708114,0.5647928,-2.3273065,3.1468608,-1.0176896,-1.4286174,-1.3401301,-3.541814,-1.7371199,-1.8703064,-1.0334752,-3.92618,-4.6210217,-3.6271038,-4.9935536,-4.503402,-3.5354536,-1.85393
-1.0562843,0.65600806,0.58920556,1.6611768,1.0773715,0.8949327,-1.2916119,0.04885939,-2.828625,0.038166683,7.255594,-2.1175241,-1.4009722,2.0266476,0.24731588,2.1927414,-3.5172603,-3.6100183,10.428419,-2.240542
0.027913613,0.3270857,2.3097517,-0.04002186,4.0358624,-1.3039925,3.5362656,0.3075066,-4.406719,-0.9549039,5.1043344,6.017817,0.25069767,-1.0417665,1.3371563,-5.4407268,-3.2978568,-6.1697035,-3.643426,2.2198243
-1.9539107,0.7494306,0.22242785,1.4720577,1.1558203,1.638726,-1.2289963,-2.3301148,-0.16470155,-3.6910586,-4.1170545,-1.7583759,-0.8127094,-2.7983027,-2.904876,-3.20578,-12.4704895,-3.2339284,-6.34281,-3.8803012
0.11975895,-1.2536298,2.7500262,-1.7490282,3.534636,-1.2094319,-0.1637646,0.07699042,-0.37663528,-0.14297782,3.7334363,-2.7326791,3.7845216,-2.3402433,0.5904143,0.8071504,-3.6728983,0.05288843,-4.3127418,8.910634
-0.85389453,-0.6526368,0.7225376,-0.9733994,-1.7913625,-0.22327562,0.57709724,-2.0473099,-1.094827,0.020836102,-1.8174411,-2.521533,-0.1832305,-0.48241085,-1.1859813,-4.41609,-4.2288685,4.5849414,-1.5593569,-3.69096
0.39049396,-0.45090318,-0.20401846,1.5270519,1.2836627,0.40244612,-0.30153266,0.0075466195,-1.3049372,2.161609,1.5886741,1.6017818,-0.10346978,1.3556713,2.147116,1.8337811,-1.9195296,-0.9177781,0.97983706,-0.07038534
-0.05997922,0.061519783,0.08620224,-0.73841816,-1.0121365,-3.7257283,3.3778646,3.0295014,-3.762075,0.14439055,-4.103522,-3.5317247,-0.41928235,-2.4133835,2.961146,-4.2095976,-0.8820521,-3.05155,-4.795181,-6.961518
-1.4010812,-1.0494124,-6.093332,-1.730228,-7.2709374,-10.963339,-1.6303579,0.3202478,-2.4413488,-0.29418036,-0.077343315,-2.5223217,5.028802,-0.3888623,-4.1474414,-6.2392077,-11.570378,-4.398809,-12.072454,-13.798537
-2.4787004,0.7135804,-0.38543323,0.71405625,0.41699064,1.1013043,-0.03682579,0.6979795,-1.667369,-1.9802737,-1.3833421,-5.4251714,-3.5555482,-1.1040422,-4.9265366,-3.265013,-7.0604334,0.19423293,-4.1509748,-4.0535035
-0.6619484,0.45723906,1.5553622,-0.057586297,2.968572,-2.6141527,-3.6485033,-0.20779657,-1.323431,0.6898144,1.1368699,-1.1250685,-0.5443975,-1.2750741,-0.7359505,-1.9734048,-4.9717836,-2.848523,-1.7830842,-4.270941
-2.5254478,1.3226641,1.5575595,-1.2949505,-0.87236136,0.9645984,-0.101044565,-1.8577703,-4.1773515,-3.3361156,-5.314587,-6.3516483,-3.3618362,-6.6907096,-3.0849004,-6.5643816,-15.615909,-2.8422055,-13.761465,-10.975657
-1.886138,-0.51513845,-0.67849934,0.9356177,0.40776798,-1.0258214,1.8491737,0.38276654,-1.2769959,-1.270972,-3.802497,-4.4797053,1.3401062,-3.3342845,-4.2953496,0.60683763,-6.242868,-2.522331,-5.0075703,-2.764187
-0.55734885,0.7967227,1.4706179,0.49535465,-2.2643,-5.1946235,-4.4783754,-1.2177733,-5.5036936,3.0172348,-2.391409,5.613397,0.5855931,-0.94497484,0.1464303,6.1447377,-0.6664151,-1.4651215,0.22586001,-0.2597688
-0.91875005,0.03363408,1.893914,1.0361812,-3.1637216,3.1319902,-4.2407203,-2.633463,-2.777284,2.2591863,-2.3456357,-3.8632238,0.07573147,-0.58879036,-2.0260186,-0.8053556,-12.425871,-5.154879,-9.874926,-2.0052261
-0.49730337,1.2331827,1.014719,0.38372388,-2.691536,-1.5242856,-3.1049547,-1.1252824,-6.0218515,4.8423038,0.851043,-2.1249888,-5.5931234,-0.30961397,-4.0741177,1.1156716,-0.104656346,-4.844292,0.4403309,6.9446697
-0.11841652,0.27750266,2.075484,0.79403204,-0.22931306,0.36765614,0.0048696697,-0.84098494,0.4461023,0.86350816,-2.615133,0.965618,-0.96731627,-1.612456,-1.0144504,3.02999,-3.7473261,-0.6709226,1.4199927,-1.6959188
-0.24182424,0.9054477,0.97662836,2.999684,2.8335881,0.92385864,0.048007034,0.64648795,-0.77122146,1.0812813,0.49660248,-3.9697492,2.7404118,-0.59448534,-2.7713554,0.52415043,-12.188838,-4.453484,-4.0036526,-3.2381287
2.118213,1.0952275,3.5395432,1.4116021,-1.2913748,4.0663967,-1.4868475,-2.1530564,-1.9579324,-2.528423,-3.929848,-4.023636,-6.237992,-5.6424603,-4.99742,0.43672988,-5.053036,-3.3074965,-3.1774268,-1.2203324
0.1419263,1.3534905,0.51765406,1.2229562,-0.87317234,-1.302943,5.860255,-0.51426446,0.058999494,-0.32405984,-1.715813,-1.5602794,-6.7713666,-3.1780336,-1.8185645,3.334538,-4.252568,-1.17623,4.0086994,-0.60326904
-2.4955978,-0.2820339,0.431043,2.471114,-0.03307942,-2.9530869,4.8195004,0.64126146,0.0062733367,-4.9201183,-3.887122,-8.28988,-0.9149382,-4.186873,-7.050701,-2.6611993,-22.908419,-0.3832719,-2.9429443,-15.755147
-1.0912935,-0.13664322,1.705873,0.9498359,-0.81336147,-0.8925298,-1.0236815,-1.160231,-6.9531074,1.1186317,-1.2484988,-5.4171343,4.383829,-3.1119156,8.902213,7.0058537,4.5865726,0.72127867,0.83031034,0.3418052
-1.1917379,-0.47095075,0.6754684,-0.64751077,1.8234321,0.3086803,-1.4927493,-1.8880517,-1.7111666,-2.9321723,-4.434021,-3.5199006,0.6345286,-7.8041377,-2.161376,-2.9031315,-5.9000983,6.105777,-5.5049133,-6.6759434
-0.5137976,1.03514,0.5868185,3.7175963,-0.6176859,-2.4692423,1.5718869,0.50338036,-2.74462,4.102903,1.007843,0.5381515,2.7473335,-1.5706692,-2.0422194,2.9385247,-3.9206138,-0.7504062,0.9685872,4.9411693
0.5113636,-1.1168448,-1.7849565,-0.8726988,0.914314,-1.456891,0.98053443,-0.67816836,-3.3091006,0.76758045,-2.9864826,-3.2376993,-3.5441148,-0.74172795,-2.4112725,-2.8411462,-2.6802464,3.0120091,-1.8535632,-3.7509613
0.05624484,-0.5867342,0.089185454,-0.8861846,1.9316099,-0.84284407,1.1096458,1.2145008,0.10325737,0.33346218,-0.9957763,0.6046895,2.81602,1.434965,0.6040316,-0.46600297,-0.56087756,0.109425806,-1.9576778,5.296935
-1.9985515,-0.6401126,1.3202848,0.88988906,0.10186181,-0.30223745,0.796828,-1.1734829,9.5082655,2.5717688,-4.687562,8.143817,-1.1144273,0.75975746,0.1330073,2.8534517,-7.138277,-4.6674404,-0.57905567,-5.8640327
0.38635322,0.023475355,0.81842947,-1.1034796,-2.0312026,2.0384305,1.4859922,0.032221466,-1.7039583,0.14644437,-1.967311,-1.0287675,-2.3064003,-1.2428348,-0.4378243,2.349569,-3.401287,0.39756727,-2.3175352,0.30432206
-0.3365626,1.1047077,0.2502294,0.65376496,0.34314847,-3.085591,-2.299424,-0.8959191,-0.90991795,5.840448,1.1430969,1.6150739,-1.6821568,1.0087118,1.6519994,1.2115681,-1.5269153,-1.4556428,-1.7495779,-2.125879