6.9473076,-3.3733418,-7.0514607,-4.2802215,-4.3320403,6.2904677,-6.9824023,1.1051618,-3.3805087,-7.465521,-18.333931,-14.132546,-2.6021123,-11.199549,-4.991516,-12.31442,-11.00184,-9.917237,-6.43286,6.338907
0.6873639,1.5629644,-14.0437355,-11.093776,-12.516138,-5.6172676,-6.084856,8.324315,9.206389,-5.5612903,5.1862817,-14.859789,0.71676284,5.0750437,7.1672816,-12.914503,-13.853498,-11.141186,-15.462174,-10.121932
-4.7592626,-2.8485308,-3.797156,5.101294,-2.4943447,-0.77278197,-1.9174478,-2.1330757,-5.2341747,-2.7837837,-8.996685,-13.873278,-10.551824,-0.7136153,-10.856962,-4.3756967,-19.045658,-5.432532,-13.059076,-13.134015
-3.3163967,7.9458623,0.55626875,-9.41831,-14.227521,-6.622116,-0.33917087,-6.812012,0.85940224,-15.718487,-12.300447,9.94251,-5.3593526,-9.869009,-14.4008045,-7.0319138,18.397165,-7.860391,-7.9658117,-10.236879
-0.060143188,-9.167566,-7.8995905,5.6347113,-1.6490612,-10.606319,3.720322,-6.8179255,-2.6274223,-11.837539,-2.8610716,1.1053492,-0.07392998,8.652345,-3.5427237,-14.560848,20.846325,-5.510447,9.009267,3.9417193
4.9629326,-2.6394866,5.255396,2.1615837,4.2073283,-8.731693,-4.079092,-2.2163434,-0.31178463,-4.413527,-9.323415,-13.478158,-1.8798841,-2.7378747,-7.5764084,-4.1055956,-13.934277,-13.495224,-6.635048,-12.899667
-3.9602318,2.6578388,0.45342034,-1.0217706,-1.2571907,12.396555,-6.629431,-2.7715938,-5.763722,-7.781605,-9.742802,7.083265,-2.878173,-6.5894184,-10.380329,-17.36099,-15.92124,-18.816898,-15.933155,-23.308807
-5.472074,1.5754336,-2.9203117,-3.3451822,-2.0658453,1.7937089,5.9900355,1.4362737,5.6460433,-9.392918,4.0671654,-8.450971,-3.6544943,-9.267411,-0.54574966,-2.8295588,-7.9413037,7.6357303,-13.293446,-9.898433
-2.2309592,3.6265213,-2.1011696,0.80511546,-5.7867875,-5.647144,-5.7300787,-11.392311,-10.59358,3.971861,2.3582256,1.5311548,-8.896371,1.5845293,13.497736,1.042688,-2.955004,-6.262024,-3.897099,-1.6086532
1.0757799,-4.8904057,-13.343928,-14.604793,-10.546324,-27.050028,-17.50123,-15.741679,-10.2649555,-20.34452,-12.108935,-4.0836706,-5.8611107,3.5930645,-7.6465926,5.6345367,-7.182131,4.2747254,-3.04284,5.705508
-5.8191223,-1.3065168,-2.898859,1.8564055,-10.268104,4.689776,-3.687761,-1.2812669,-1.3607714,-6.5746408,-10.273101,7.3366547,-5.593452,1.7753507,-5.018578,0.92527264,9.2460985,2.2479546,-1.5260103,-0.39468646
-5.9707446,-5.0014343,3.034474,-9.001093,-15.131826,-9.438681,-6.769454,6.6971116,-12.324532,7.7835555,5.2357097,4.8927484,-1.8651996,0.8773762,-5.296758,-12.308325,-10.816381,5.8261385,16.279282,-2.2699919
-3.1856503,2.034553,-8.729519,-1.3255773,5.872155,2.5866027,0.08721184,0.74045575,-6.267407,-6.485182,0.96516275,-5.282708,-2.6155434,-13.144605,-3.649201,-6.2686543,-12.955184,-9.022292,-17.26447,-15.287121
2.8719058,-1.9198698,-5.8689437,-9.778163,-11.232914,-11.905921,1.7663816,-4.6343884,-5.471865,5.8712773,12.297803,-12.465944,4.381199,-6.0086064,-9.083414,4.258701,-10.529408,-5.902239,-21.83154,-2.2032235
5.426797,2.4506493,-4.6899056,1.0443952,-0.397315,-3.2655094,0.16205913,-5.9203625,-18.198444,1.526191,-4.4199595,-9.894844,-4.2277355,-3.4850414,-3.929295,3.195256,-23.06299,-5.8460336,-5.3838973,-9.209219
-4.8461456,-4.5506606,-6.648412,2.5379345,0.87847453,-3.0539513,3.0385175,-5.9920487,-7.7906613,-0.839155,-8.61398,-3.7625694,1.1861511,-4.2754383,-4.5235095,1.6563343,-7.7060556,10.421154,-6.3155074,-5.3020773
-12.428651,-4.4711924,-7.615877,-3.4455252,14.629149,-0.7707644,-3.8448126,-5.404476,1.038003,5.989439,-7.2972655,-4.6754956,-0.5846447,11.962055,-7.280743,-11.4378195,-9.022266,-3.0197783,-20.312105,-23.776056
-1.3254962,-0.34530556,0.75611085,2.5995505,2.755359,-0.19449809,-1.7716582,-4.2664447,-10.729703,-9.591801,-2.9980488,-6.6149354,-12.442438,-13.195725,-5.9744897,-3.5634215,-14.528308,1.1489841,-8.882419,-12.0616665
-1.0128783,-0.060498655,0.14485951,3.8768427,4.1645503,2.0947254,7.0548315,-3.1106741,-4.886609,3.0593824,0.85621905,-2.134644,-1.65114,-2.9535298,7.008351,-3.2536168,-6.4217973,-2.9335628,-8.221304,0.80619407
1.1114501,-0.8101596,0.18735895,-0.71324337,-4.86274,-3.0661945,-4.7589183,0.5568597,-10.2158165,8.563153,0.5431562,-7.806986,-6.280264,4.3428183,8.199862,5.868365,-2.3412626,-6.785445,-9.602758,-3.3127139
2.1398528,-1.7753323,-4.2740607,5.4535875,3.4806159,-2.8540542,-3.9790635,-1.8568746,-8.039967,-6.0484223,-6.050991,-8.060728,-12.741656,-7.857443,-10.083511,-5.341377,-19.161076,-13.84427,-9.829987,-15.107775
4.8109727,-2.5639915,-7.0029936,5.28036,-2.8740702,6.572502,-1.6568998,-6.7307773,-2.051572,-6.5185094,-2.0344522,-0.040093828,1.2392982,-8.862754,-5.301607,2.4318907,-6.9508657,-5.678786,1.1599076,-11.789541
-2.6151123,2.1355214,1.1275886,0.22302392,-5.758439,-6.008655,-8.416649,-5.3181286,-2.5706804,-4.906562,11.63914,-8.20705,0.8281618,-0.8593749,-3.4674098,-1.9136373,-7.593056,-7.952695,18.597925,-6.8007364
2.9559884,-4.7403874,1.9583565,-5.182323,8.717445,-11.602225,3.2409885,-4.6964355,-12.315127,-10.024158,11.227808,15.951901,-2.9831111,-5.8544536,6.7257376,-9.623672,-1.3470765,-14.094958,-8.6991825,6.1849847
-0.44781643,0.848262,-0.016315823,-1.5082631,-2.8290198,1.3266809,-5.7399745,-5.1894546,-11.899345,-7.3785954,-7.506931,-3.0024648,0.5384413,-7.2376986,-6.2896123,-13.086121,-16.055182,-6.9040475,-15.653413,-11.228783
-3.5235968,-8.978947,7.6750207,-1.2515451,7.3508296,-10.656935,-8.631666,7.2086167,2.4543629,-3.4082463,-6.8490734,-9.982285,6.7639723,-6.788158,-7.13433,-2.9384284,-3.4019275,-2.8202598,-15.696665,10.974475
-5.3518696,-6.8379655,0.6538144,-1.905236,-3.5829296,0.5252409,-0.09840259,-10.659539,-5.676508,1.3043725,-11.319295,-7.7148833,-3.925805,0.008459999,-0.985871,-3.9379025,-10.906072,11.583358,-6.730807,-1.295807
3.7598612,-4.8243036,-3.8631198,2.0243587,5.6021566,-0.071510576,-3.224099,0.86775637,-8.576323,-5.608759,2.1629155,-5.4583745,6.1577063,-9.725162,4.72263,4.9734893,-2.7753205,-4.585153,-5.659546,-9.873665
-3.0861106,-5.994046,-1.7105395,-9.199849,-6.0217032,-10.227976,-0.4068109,12.79152,-4.8320785,-2.1772795,-16.67698,-6.193379,-2.8509934,-7.8083777,12.424072,-13.654475,-1.8729365,-7.711183,-8.588824,-4.1961274
-6.151643,-2.0888555,-8.227632,-0.5282675,-11.459823,-11.447079,-3.3097844,1.9776891,-1.1636543,-1.4396048,-1.1667444,0.28211787,7.8539953,-2.5038366,-6.221208,-17.494432,-17.574095,-2.3901687,-20.274206,-15.892791
-7.476602,2.84588,-2.9685946,-0.93474066,-1.6777076,0.68741363,-0.27023908,3.0992963,-14.93564,-9.306978,-7.711145,-10.902731,-2.6871917,0.8719,-10.158594,1.0124676,-8.009182,2.1948907,-14.234592,0.21277344
0.8353936,1.7078342,-0.007865196,-2.757368,4.999211,-6.2752824,-4.291739,0.37767172,-12.202352,-5.8840504,0.4694131,-9.87243,-2.8176854,-10.28723,-3.8991466,-8.938555,-14.0555105,1.2685835,-2.5983725,-19.259901
-1.8096956,4.139151,-0.43153915,-4.2246127,-4.239764,1.4098668,-2.4594865,-14.909381,-8.113663,-8.317325,-7.8486204,-11.617694,-4.4927588,-6.9484253,-5.3046184,-15.8775625,-21.412754,-11.291213,-18.687582,-13.251786
-0.067615554,-2.3714952,-4.6151056,0.9474532,2.2728121,0.6865661,-0.0006537692,1.6173627,-0.2535413,-8.796232,-8.897601,-3.178484,4.1529756,-5.2836914,-5.583832,-3.5247016,-17.038122,-8.878152,-12.422289,-7.1819663
-3.5448995,3.5631936,-5.0272264,4.1187873,-2.83418,-8.391537,-8.286643,-2.0217302,0.15733975,0.3358081,-6.0427876,10.000426,0.68631905,-13.152784,-11.5391655,10.727181,2.1577692,-2.3767977,-11.483935,-5.1357727
-4.003823,-4.843427,3.8362286,-2.1319644,-7.353557,8.986349,-3.4909115,-9.5297,-8.633633,8.63913,-7.0933704,-16.818258,-2.0928402,3.9009027,-8.896423,1.1705894,-5.3292446,-10.081104,-28.105963,-2.21595
-5.541412,2.8799033,1.6184245,3.02224,-6.194927,-7.018965,-9.950235,-6.7432475,-15.665379,9.550766,0.046636704,-5.3573112,-12.931121,-3.671412,-8.933439,0.44882542,-4.61465,-10.954702,-5.89841,17.028269
2.451798,4.75875,5.685336,3.1220756,-2.1627712,1.1803225,3.8260713,-0.37320858,-4.8685865,-5.460822,-9.907593,0.21988487,-5.6615615,0.20147096,-3.3826728,1.6537744,-5.8138223,-5.3149347,8.437508,-9.745354
2.6383257,-0.56010413,1.7979348,5.257746,-0.18900743,0.9522393,7.0464606,-4.4722495,-10.265585,-1.7423266,-4.5326905,1.7438945,-11.725965,0.23304999,-3.1913931,-0.0069590495,-17.02574,-12.553944,-12.853851,-8.65191
3.5428026,-5.146711,5.309943,-2.5189567,0.016083464,3.9165654,-5.672425,-11.514467,-4.2146416,-6.454409,0.9688464,-10.184059,-8.663426,-9.556186,-6.326106,2.0747466,-14.843075,-6.7952952,-8.259652,-7.6745577
-2.191219,0.44346866,-7.1772375,-3.4440143,-4.6132917,-6.6926174,9.818558,1.7594377,-4.9059577,-1.068307,-8.371212,-11.806317,-4.695649,-15.997914,-9.385055,5.801198,-7.8179693,-1.8880582,7.959473,-10.419319
-3.831308,0.18080328,-2.1993835,3.423233,-1.8521719,-7.6254597,7.076141,2.4895504,-0.2725078,-11.748677,-14.468908,-14.478333,-1.5682625,-4.8389153,-12.156762,-8.189326,-22.336025,-1.1225275,-2.683244,-14.846869
-9.116336,-2.6000493,5.1343427,-2.8590004,-7.6558533,-1.2798681,-1.1297241,-8.638151,-6.617626,-2.4951656,-5.645672,-11.261461,8.614917,-5.3782945,15.998242,11.660034,5.160533,-4.4745474,2.2351265,-5.010557
1.0957754,-1.7222732,2.714337,-2.417899,1.7321333,4.524511,-2.9744372,-5.61311,-1.253639,-10.285352,-15.378767,-10.589185,5.8945584,-14.6171,0.14360546,-6.267857,-7.6850343,9.786054,-20.116318,-12.293453
-9.211116,3.2650282,-1.9100263,8.427225,-10.114931,-5.0631,-3.7952588,-7.4648547,-11.150955,0.4756042,-7.677465,0.26760444,8.546065,-9.169246,-12.660583,-0.34426758,-8.31842,-1.598236,-5.851564,4.184315
4.1466002,-8.612772,-4.946506,-3.476615,2.188955,-5.7558208,-6.992007,-2.802326,-10.205418,-0.18550687,-8.894355,-6.828927,-6.9938006,-5.011994,-4.837452,-5.8587465,-1.7913349,6.1431327,-5.913199,-5.084182
1.2457937,-6.8525286,1.2341164,1.0554228,6.721427,-5.1961937,4.7086344,-4.658296,-12.693381,-4.7048,-6.596982,-7.7622237,5.1547065,3.6609719,-2.4572306,-11.54314,1.6876028,-10.288333,-10.7867565,8.807079
-5.8150916,-3.5191681,-0.66468763,1.805125,-7.3741546,-0.36604777,5.21521,-1.4473886,17.359587,6.429519,-9.427619,14.394328,-4.0441527,-0.5060423,-3.6324046,5.4776926,-12.743129,-18.581232,0.89297336,-1.3362833
-0.22179078,0.5344099,-0.71710366,2.281965,-0.52891135,14.020917,-2.5523875,-0.19662803,-3.238316,-5.961688,-1.275181,-7.617839,-16.070498,-3.4164944,-2.6867216,5.435779,2.3943956,6.740263,-10.803594,9.0193815
-1.9351757,1.0262815,0.59614193,5.2220516,-3.6668067,-0.8548351,-5.1335616,-7.878126,-9.63511,11.289966,2.6980274,-2.789693,-14.8766165,-9.174407,1.6714555,3.1259632,2.237372,-2.1538613,-10.050252,-6.171695