1.769118,-0.81930876,0.19429877,-1.1448859,-1.7971764,2.657092,-2.0560837,0.3015167,-2.135273,-3.7907765,-4.881912,-6.2768617,-0.11930035,-6.5777297,-2.4550428,-6.3330564,-6.6773486,-2.9280493,-4.538775,1.4977363
0.38398042,1.0628526,-7.802894,-3.472437,-5.868648,-2.6459625,-2.288353,5.0089536,6.2013226,-2.7982872,0.322391,-9.349962,-1.1641314,3.440799,3.4987452,-6.002817,-6.286986,-11.62542,-7.623877,-5.65448
-3.3729608,-2.437438,-0.7134121,-0.44705942,0.5923598,1.74166,0.7712671,-1.470038,-3.2877645,-1.9186604,-2.9996266,-6.4049063,-3.3556626,-2.2106264,-4.7979836,-5.9560456,-11.560668,-6.1778264,-6.3858604,-8.227863
-0.69700146,5.1425233,0.7158375,-3.3788304,-5.839304,-4.5635924,-0.09991728,-1.3514789,0.95091426,-5.4223466,-6.477647,3.1188436,-3.5748906,-4.0676217,-10.830973,-2.670773,8.326592,-3.5431395,-0.21680883,-3.5288446
-0.87037724,-1.1448549,-1.0899162,3.343722,0.04893235,-2.5651345,3.2031665,-0.93246883,2.5695798,-2.9379075,0.99646866,1.679203,0.726467,5.2058816,-1.9423553,-2.908227,8.203101,-2.3768594,4.224857,1.3937186
0.08719494,-1.3606789,2.9564893,0.8625468,1.0537401,0.025184091,-0.4579551,-1.131922,-0.965945,-2.766308,-3.3539102,-6.432134,-1.3716294,-2.4192896,-3.2359004,-0.54172534,-11.262337,-1.9783001,-9.410222,-5.968648
-2.0305405,0.60898274,0.8143734,-0.3837963,-0.62631893,7.749603,-4.8027925,-1.213598,-3.9278374,-7.629222,-5.5467663,3.5982652,-3.0996244,-1.8188963,-3.8047945,-6.455659,-13.16148,-6.5444226,-14.54142,-13.467671
-1.2441726,0.13009973,-0.18209851,-0.37164298,0.6175475,-0.25504735,1.3971794,-0.847583,3.6411552,1.8185923,-1.2550085,-1.727174,-0.33343032,-1.5610539,-0.89230233,-1.4627069,-5.818993,4.5080085,-2.2060478,-4.2289443
-0.17231871,1.3575445,1.8823209,0.76209605,-0.6562103,-0.5482457,-1.1540807,-0.56776994,-2.6408136,2.8054943,3.2989478,3.0666611,-1.674444,0.64443535,8.653172,2.3752959,1.0366635,-0.012116322,0.8404751,0.98752236
1.0812746,-4.3688674,-12.863552,-15.304264,-9.30008,-14.590139,-12.131387,-8.289586,-5.949711,-7.8586507,-8.434741,-1.4051952,-6.026987,0.46125188,-6.044243,3.441087,-2.3789139,1.011939,-0.27522278,1.7487644
0.26033434,0.4103245,2.0108075,1.2811333,-1.9536653,-0.019964334,-0.6425736,-0.26675767,-1.3859416,0.31776652,-1.6288825,2.7563257,-2.4182208,-0.13665764,-0.45259896,2.5463948,2.3530037,2.8038774,0.32288846,-1.4712915
-0.77151096,-2.7720544,-0.57464945,-6.3125987,-6.838895,-2.4828198,-4.4023395,4.551384,-4.903979,2.5703583,3.5022016,2.4485395,-0.33427566,1.2553228,-6.146741,-4.669681,-3.3206747,2.1840703,10.383053,0.32309285
-1.7907056,0.71288186,-0.67460674,-0.5752941,1.6874958,1.7908096,0.1241619,0.26506618,1.4184878,-4.742675,-2.3059313,-5.5634246,-4.427236,-5.4374065,-4.624221,-4.358939,-10.681901,-2.5719981,-7.588104,-8.666701
-0.11468497,-0.1879809,-1.4289963,-5.461288,-4.03165,-7.2207546,3.4426901,-2.2653742,-5.500953,2.6951587,6.2595787,-4.5991335,2.6147866,-5.5444946,-3.787566,1.1149582,-2.384201,-1.623158,-7.667392,-3.0782452
-0.44994685,1.0982394,-1.5195034,-0.5102535,0.7975729,1.6760057,0.81035554,-2.1063774,-3.630192,0.13579908,-3.1386242,-5.267249,-4.6622424,-0.5150606,-2.1748059,-1.4020672,-5.290205,-1.3992765,-1.1195729,-2.451738
-0.6657232,-0.24538167,-0.0050110505,1.3009218,-0.41446814,-0.65615237,4.086626,-1.359199,-2.0731957,0.7524284,-2.2690516,-1.070141,0.9386424,-0.88454944,-0.63387513,3.0692346,-3.3626056,7.5159597,-2.130633,-1.4496098
-3.0236948,-0.8728437,-1.2984543,1.7434372,8.077393,-0.52081805,-1.6345437,-2.1885774,0.22586915,2.9876726,-3.3081229,-2.480474,2.24589,5.754617,-2.0613735,-4.3226843,-9.172427,-2.4714456,-8.367603,-6.300623
-1.5016797,-0.45693627,0.12969989,0.72177577,2.9500122,1.1495702,-1.2991039,-0.89241207,-2.950914,-5.558071,-2.7735207,-3.4485412,-2.7379553,-3.863669,-2.9594474,-3.1010718,-6.167949,-1.6919056,-4.2795324,-2.8183198
-0.8348525,0.024026353,1.6940168,0.25913772,3.4035463,-0.4377943,2.0485253,-0.47550753,-0.85482687,0.7925891,-0.936205,-0.93589014,-0.6637757,1.071976,3.719655,-2.35743,-1.4180918,-0.34624854,-0.26706263,-0.27638435
-0.347864,0.019006269,1.8373319,1.0939094,-0.32520458,-0.9694775,-1.7718263,0.012519126,-0.77750766,4.910061,-0.2660072,-1.1137463,-1.3776581,4.9119954,3.6910124,3.834621,-4.231283,-0.42713594,0.10284539,-2.1315548
-0.01585795,-1.284502,-0.10282772,3.572659,1.2084218,-0.20124981,-1.7322092,-1.2914962,-4.2570324,-5.6570153,-4.2934628,-5.132517,-4.372984,-3.930416,-9.391,-7.950838,-14.371995,-5.9264617,-7.1645803,-8.1991205
0.5134198,-0.39661953,-0.3147029,1.309774,-2.3774502,2.403187,-1.3287885,-2.2778845,-1.0781046,-4.177171,-1.9243177,-1.7929717,-1.948663,-4.739203,-6.0069013,-2.2816417,-4.657621,-4.4989414,-3.5979137,-2.8527224
-1.0758382,0.67380834,0.5909389,1.6585882,1.0716566,0.7677511,-1.3151748,-0.005207495,-2.8984299,-0.2302212,7.9291697,-2.992845,-2.2691476,1.582495,0.14841673,2.6893792,-3.607833,-2.960575,13.005134,-3.2232223
-0.15865621,0.45191255,2.334101,-2.882667,5.5561285,-3.5578575,3.0441806,0.6149982,-4.41399,-1.1068238,5.746438,6.5992794,-0.5269595,-1.6201446,0.62213415,-6.0457172,-0.833611,-6.383719,-3.6158645,3.7219195
-1.9720796,0.93275833,0.08741092,1.4697298,1.152977,1.6485546,-1.4710859,-2.6651337,-0.7300653,-3.7626674,-4.114143,-2.6739872,-0.2498429,-2.9357982,-2.9524624,-3.6112194,-12.681189,-2.6485825,-6.739072,-3.9898927
0.18020502,-1.4874964,4.383101,-2.6201456,5.025305,-2.2492185,-0.5342143,0.054817356,1.9852619,-0.5036563,3.4448018,-2.8013818,4.369647,-3.4233973,-0.63608545,0.81609726,-3.6699502,0.069184035,-5.786553,5.874053
-0.8644358,-0.66904616,0.8576533,-1.0515014,-1.8478314,-0.16503398,0.44832528,-2.085293,-1.0694771,-0.060859166,-1.8147533,-2.7204113,-2.0087764,-0.7763441,2.4351442,-4.6230755,-4.269464,4.9345474,-1.1323912,-3.8296623
0.39010274,-0.4541606,-0.20906734,1.5843797,1.255273,0.3930065,-0.3834913,0.0047384454,-1.2962497,2.1328743,1.6558865,1.6507138,-0.5203562,1.3057795,2.1875966,1.9184492,-1.873956,-0.9097586,0.8999466,-0.5080108
-0.06726294,-0.17495698,-0.098892584,-1.258638,-2.0036643,-3.8476195,2.6323402,3.8813019,-3.3885639,-0.27075428,-5.0225577,-3.9866958,0.36003274,-3.1933572,4.0188193,-4.001294,-1.2861767,-3.8085399,-5.0850625,-7.022403
-1.5254345,-1.0882542,-7.0053735,-2.4212325,-8.098617,-11.522259,-0.6274998,-0.16250278,-2.5293338,-0.564713,-0.33911157,-0.53780663,5.1519103,-0.4552371,-4.3241467,-6.073699,-11.750699,-4.210382,-12.025267,-15.178688
-2.505772,0.89196664,-0.51421916,0.7122221,0.41558525,1.1140883,-0.2441981,0.7383123,-1.8201979,-2.1724176,-1.3270916,-5.8509836,-4.339941,-1.4811871,-5.1286016,-3.2670884,-6.865622,0.6460385,-4.5133867,-4.3236046
-0.67677736,0.3373176,1.5474893,-0.09559236,3.1489944,-2.7371838,-1.2971491,-0.23748574,0.29057357,0.56821007,0.6758274,-1.2104986,-0.43505672,-1.7891252,-1.8357471,-2.097279,-4.89425,-1.9652811,-2.1940384,-4.711737
-2.7622337,1.731482,1.4797802,-1.2942902,-0.88384926,1.1336303,-0.63872474,-2.9837914,-5.529613,-4.3157377,-5.6711783,-5.9866815,-4.5166025,-7.78268,-3.2500331,-9.022957,-16.279737,-3.2393756,-14.357168,-12.936986
-1.8896549,-0.52501804,-0.6823068,0.9450442,0.39286622,-1.0303211,2.1970878,0.29111648,-1.1858197,-1.3964523,-3.9320242,-4.588504,2.1417432,-3.513351,-4.3483644,0.58586603,-6.657667,-2.495825,-5.1734757,-2.8841193
-0.56044203,0.79248923,1.4672453,0.47338876,-2.2960267,-5.177919,-4.568443,-1.2221069,-5.4799395,2.9582279,-2.5911877,6.0145245,0.8867108,-0.9512172,0.09085058,6.689217,-0.8203663,-1.468096,0.13485697,-0.5232559
-0.96017915,-0.3505178,2.3279624,1.0306633,-4.011698,3.5637555,-6.265422,-2.762042,-3.2235465,2.3480117,-3.072268,-8.140909,0.09444642,1.3126352,-3.1121888,-1.51585,-5.9614973,-5.421782,-10.302335,-2.2700896
-0.5848036,1.5466893,0.54045683,1.6196609,-2.1865761,-2.6384578,-2.1585221,-1.432929,-7.3838487,4.8193665,0.09305595,-4.7124825,-7.504681,1.2015358,-4.293623,0.3157046,-1.418443,-5.107442,-0.018550217,7.6759987
-0.12136658,0.25276127,1.4686104,0.35345602,-0.3142696,1.1586084,-0.10541328,-0.84407985,0.39518374,0.8262499,-2.5949333,3.4147067,-2.6589646,-1.7890935,-1.1421943,3.2960079,-5.357711,-0.64723927,1.6953664,-1.7847464
-0.25024065,0.90731615,0.9552944,3.3446412,2.6056437,0.868198,-0.15709957,0.59491026,-0.5176424,0.7851108,0.5289901,-4.0513825,0.4947418,-0.91886055,-3.0562027,0.49431592,-12.179512,-4.408035,-4.2010093,-4.3570747
2.5027907,0.74051857,4.218052,1.1921345,-1.7167264,4.2772923,-2.1533813,-2.5320768,-0.6379339,-2.869724,-4.0054793,-3.3141077,-8.866355,-7.0636096,-6.1486335,-0.32086024,-5.623957,-3.2504263,-4.681383,-3.266345
0.08471755,1.7128737,0.27072617,0.20342946,0.28062022,-3.3818316,7.0717916,-1.9811285,-2.4247117,-0.729032,-1.9121368,-2.7097783,-4.8778296,-5.172062,-4.3934903,2.6051137,-5.743283,0.11268612,4.3043685,-2.4294481
-2.5327487,-0.04817883,-0.2252805,3.3450656,-0.25096276,-3.8128557,6.2769756,0.46611387,0.6396061,-5.032381,-4.3827825,-7.7714453,-1.8927666,-5.6226053,-8.290966,-4.2124577,-22.71198,-0.02432085,-3.143747,-18.716927
-1.1989218,-0.21868208,1.8456086,0.85414976,-1.2297001,-0.94729996,-0.32310697,-1.7525998,-3.8843844,0.28376687,-1.7472514,-6.456597,4.695678,-2.6616762,10.561989,8.398516,3.2816117,0.018946173,2.8215418,-0.5971577
-1.176844,-0.52906674,0.59113073,-0.7050908,2.496444,0.53169465,-1.5556936,-2.02511,-1.7397265,-3.5173528,-4.7906065,-4.7480187,0.7135689,-8.9613495,-7.859371e-05,-3.3043878,-3.090991,4.901036,-4.6706867,-7.1624107
-0.63535845,1.0850927,-1.036895,5.8370714,-1.5865432,-2.5196836,-1.8476155,0.3584722,-2.9152567,2.3996897,0.10812682,4.05346,6.224589,-2.5445068,-4.6383877,2.0496182,-5.35898,-1.0606828,0.3010079,1.7144132
0.60255176,-1.1800941,-1.7796105,-1.0235597,1.184681,-1.5632675,0.939195,-0.64084214,-3.2792263,0.7568658,-3.0034385,-3.849772,-5.633842,-1.1835358,-1.864207,-2.8414662,-2.3252277,2.0786767,-2.2401419,-3.3882837
0.044859968,-0.6021418,-0.097264536,-1.3414347,3.0464942,-0.5421026,0.99820954,1.301384,0.15775566,0.20646413,-1.0676025,0.5239386,2.1275516,1.2085071,0.615304,-0.6422006,-0.9280307,0.12914562,-2.0740306,6.605965
-1.7984722,-0.64611405,1.2188829,0.8648661,-0.045717936,-0.13305672,2.029016,-1.2020856,11.696132,2.4290576,-5.006409,8.672073,-2.108291,-0.22608773,-0.75649893,3.5371192,-10.14234,-4.7667217,0.38800642,-7.0412936
0.3843136,0.021292334,0.8353256,-1.1867617,-2.0270534,2.1681345,1.4296886,0.026897471,-1.6735474,0.07898087,-1.9259348,-1.1042942,-2.6544492,-1.2805322,-0.4898362,2.69165,-3.2443905,0.61239785,-2.4068959,0.3323233
-0.3389052,1.1151392,0.23916161,0.68651074,0.2777014,-3.1085875,-2.4961166,-0.92145455,-0.95896834,6.5913424,0.90182817,1.6669143,-2.6306098,0.005980798,1.7998633,1.3081031,-0.77528584,-1.4599338,-1.9551712,-2.7657545