3.1419394,-1.1062938,-2.032763,-1.9783702,-4.173243,3.6413326,-3.6944654,2.0770216,-4.3699036,-5.3920217,-9.7857895,-6.9540415,-4.1327624,-6.765706,-6.672373,-8.926452,-6.9506154,-5.8636584,-6.7089,4.311034
-0.25933295,0.5380877,-11.236875,-7.71044,-11.218528,-1.2297703,-5.602729,7.0258417,9.187536,-3.9042451,0.99731785,-7.2680593,-3.3910067,4.5013766,5.0107627,-10.847099,-9.690804,-9.090733,-11.130888,-6.621499
-3.405624,-2.5633793,-0.766536,-0.674995,0.62612665,2.114646,0.8939259,-1.5624813,-4.4671197,-2.47297,-4.4928327,-9.429451,-5.9113774,-2.012829,-4.8371925,-6.305435,-12.92288,-5.1845665,-7.6868935,-11.962124
-2.6811807,7.8625135,1.0300704,-7.0965905,-7.9167356,-8.373642,0.518779,-7.530869,0.30383018,-7.706258,-12.458469,6.3860173,-4.6330056,-8.720718,-13.811773,-8.453028,11.786704,-6.0061965,-3.1962917,-4.53179
-0.16065659,-4.452509,-5.9073014,4.0531387,-2.2701924,-6.833341,5.9625735,-4.8900075,-3.0347774,-9.29288,-4.763177,1.5526965,4.4978647,9.571405,-5.6941705,-5.8678036,12.90919,-1.3741155,7.15672,0.7887109
0.33861205,-1.0951774,4.9698987,0.968706,0.30021632,-1.910363,-5.5883336,-1.1738122,-2.0105805,-4.03718,-2.9045,-11.499209,-2.829715,0.0059894533,-4.339453,-3.5014944,-14.843521,-3.9958684,-7.681787,-8.94892
-1.853293,1.4288656,0.8754249,-1.623049,-0.57818586,11.675958,-6.7652755,-0.6440411,-4.784789,-11.191455,-4.9394293,1.8902007,-3.6308756,-4.434662,-3.3848634,-11.472796,-13.635805,-8.900531,-15.549516,-16.861334
-1.2570041,-0.016834322,-0.21770185,0.031764105,1.1208586,-0.45062375,0.046105478,0.6386438,2.2131722,-1.4164531,0.6595663,-2.7074409,-4.3062844,-5.175227,-0.5710599,-3.1141925,-4.6322374,6.9167476,-7.110395,-7.8099217
0.046791185,1.6785218,2.3165786,1.4031105,-1.3740748,-2.9685733,-1.9520658,-4.6993175,-4.55556,2.3499186,2.8048112,5.485915,-2.904459,-1.683257,8.704893,0.67978585,-1.6429977,-3.7610266,-2.4559643,1.1558615
1.3826754,-5.0684543,-13.731332,-10.494875,-8.952922,-18.51727,-14.82213,-11.875261,-7.832551,-13.549241,-15.164963,-2.2986999,-6.108499,0.35807508,-7.899126,4.6935,-3.7039049,1.4716108,0.22655858,2.0577285
0.18733023,-0.4600044,4.413718,1.6598839,-3.9692264,2.2192318,1.1086853,-0.95873487,-1.2689742,-1.4764074,-1.6654267,4.036422,-4.620162,-1.3037975,-2.0631196,0.9127684,4.263859,0.20657025,0.103648864,0.13390304
-2.3423638,-5.030285,2.476096,-10.859644,-10.312235,-8.304312,-3.9109278,4.6266975,-8.890836,4.015747,5.170804,3.3010678,-2.3855083,1.1363496,-8.133931,-11.193193,-2.1022391,3.9438717,13.09742,-1.1109883
-0.8662637,0.48388758,-1.0291718,1.0287213,1.8047271,0.21074341,-0.81788677,-0.7098427,-5.7296467,-5.692702,-6.0426826,-8.095124,-5.7394695,-10.8752775,-3.6626604,-1.2747997,-14.061963,-4.116755,-11.611594,-14.077773
0.24856873,-0.66265774,-3.4430587,-8.928604,-7.4861727,-7.991178,3.7345927,-5.684216,-6.742531,5.8528447,9.796462,-9.51169,3.4638999,-7.851149,-7.0908427,2.1267118,-2.739939,-1.9089918,-13.366036,-4.6230087
0.097326666,1.1469231,-1.6432457,-0.6207528,0.7660963,0.50086564,0.93791246,-2.29916,-5.5958834,-0.66180027,-3.2637541,-6.1264863,-4.226685,-3.221811,-3.1853757,0.06204887,-9.211388,-0.6033114,0.33757892,-4.0301313
-0.7227255,-0.0155339595,-0.23281674,0.023980232,-0.7399672,1.1577817,6.49746,-2.6615407,-2.9379997,-1.7628353,-8.883135,-3.706364,0.6811551,-4.708627,0.04462002,4.547657,-4.4238515,6.9137344,-9.161597,0.3773814
-2.4899962,-0.5176026,-3.5884233,-1.5097022,10.790177,0.13436198,0.074185275,-8.545185,-1.0963632,3.6928272,-3.5267503,-3.2195115,3.9911659,8.566993,-8.164734,-9.2501955,-7.2690263,-6.0221324,-17.353949,-12.57538
-1.584217,-0.98494935,0.19326751,0.79606974,2.9437637,1.0663581,-1.3176049,-1.1075795,-4.2723722,-8.235433,-2.8658595,-8.087393,-9.716749,-10.3132515,-1.7588614,-3.8701055,-9.226901,1.1838156,-7.6548924,-7.7529073
-0.8408641,0.6471059,1.192151,0.09823495,5.065493,1.8846034,4.136849,-0.7243797,-3.8793797,1.1915796,-3.31868,-2.7823784,0.95932794,-1.0964977,7.4789796,-6.149603,-2.9430637,0.37697366,-3.3879497,-0.85297227
-0.48252892,0.26365387,1.3415577,1.0555927,-0.697059,-3.478579,-3.1382596,0.0042156684,1.3566586,7.066821,0.91213304,-2.9286335,-2.9131627,3.021673,3.1755824,5.525809,-5.605981,-5.3270626,-5.346858,-5.2923512
1.6717885,-1.3692311,-1.4327346,2.9912398,1.0154635,-0.20876719,-1.9168673,-1.1639059,-4.9763436,-4.6996193,-2.719967,-7.574707,-8.9465475,-11.056534,-10.793551,-5.610063,-11.76596,-6.343146,-9.240684,-11.9021015
2.6933262,-1.0916996,-3.3506153,1.7931842,-3.4413266,6.2033696,-2.9527235,-2.4542387,-1.6527107,-4.8291507,0.5077375,-1.3320311,-1.6252389,-8.531843,-0.23769914,-2.4429407,-1.4248847,-4.204046,1.6109487,-8.1823845
-0.6623724,2.116057,-0.034603246,1.5168108,2.1840112,-2.7285347,-9.246981,-0.05636331,-7.8958483,-1.2025974,9.337058,-7.1011653,0.7047255,2.4047034,-2.8350072,2.3814814,-4.960007,-6.719311,15.368354,-1.6898255
2.5759828,-0.062504426,1.905654,-5.1284857,8.033744,-7.5683255,4.3821316,-2.6985571,-6.429085,-5.1838336,11.829463,11.636126,-2.0322745,-8.009687,0.15509802,-8.746572,-2.1573496,-13.09758,-6.1374526,4.6118336
-2.400789,2.2562249,-1.5235431,0.38333663,1.2901008,1.070416,-4.068649,-5.2113805,-7.1726913,-4.535076,-4.161317,-0.37666002,1.5417672,-3.4726708,-2.3683383,-6.565063,-14.890044,-7.720424,-13.870282,-10.021635
-0.24329427,-3.5110955,6.4163346,0.68375367,4.680708,-7.0023975,-2.7114367,4.006655,2.4797604,0.35460842,-0.59349763,-5.5217557,5.9923368,-0.8493622,-6.1330905,-4.147892,-5.5367627,-3.2985728,-11.890448,5.527287
0.11227632,-2.3394387,1.1111913,-1.5822681,-5.342562,0.66725636,-1.3947872,-3.087614,-1.4639202,-1.7819698,-5.7362623,-4.652593,-0.72826326,-2.8468502,1.0860391,-2.528861,-4.402043,7.942034,-5.798958,-2.9464965
0.37690938,-0.53620124,-0.21906687,2.038466,0.9980853,0.16140856,-1.6856682,-0.04483563,-1.5214044,-0.4643644,5.54448,-1.6061769,-0.1447384,-2.0480564,4.529346,1.7681476,-1.7264607,-0.9401265,-3.2904003,-2.3868375
-0.5229643,-2.0472794,-1.6154417,-2.0870357,-3.1627111,-4.6043186,-0.16696979,8.074665,-5.01244,-2.8978894,-11.962693,1.7614568,-0.830774,-1.3964568,7.258084,-9.4798355,0.6237112,-3.1712034,-11.451774,-4.168648
-4.399879,-0.39254332,-8.111565,-2.6093426,-8.4935465,-10.157019,-0.8079825,-1.1869503,-2.8821275,-2.1295273,-2.424359,-4.291009,7.1910505,-1.691969,-5.488007,-10.449163,-15.4682865,-0.5906399,-15.743635,-14.469793
-1.9754325,1.2826124,-1.4351814,0.44598585,0.4352424,1.4772118,-2.9842026,-0.023088843,-10.337982,-5.2069063,-3.3615828,-4.28746,-5.232578,2.6527421,-9.012339,0.9045529,-9.357046,2.562512,-7.985827,-8.298268
-0.8754765,2.4854443,1.4483312,-0.53071964,4.115603,-5.8131337,-1.7594827,0.11902845,-5.0099673,-2.4575043,-0.7831187,-4.8004355,-6.4324536,-7.9977164,-0.7116417,-8.557683,-7.930109,1.9732546,-2.5064907,-9.206936
-3.4961095,3.9545267,1.8699498,-3.1794708,-1.3657613,1.2529795,-4.393691,-8.167088,-6.2870293,-8.55505,-10.549309,-9.657378,-3.616055,-2.637644,-2.0860744,-10.542922,-19.14211,-2.628538,-21.581999,-10.457825
-1.9815763,-0.8298377,-0.9666175,1.2769192,0.39778107,-1.537795,2.8074722,1.8793181,0.6565377,-3.4488182,-6.0517464,-1.737881,0.33075175,-5.692332,-3.004807,2.1053314,-7.5065527,-5.7389607,-5.779967,-3.7648683
-1.0830977,1.8211622,1.1605477,1.634712,-1.2257165,-2.4310014,-4.409583,-2.8919587,-3.2935538,0.075489886,-3.276878,6.594507,3.365725,-4.847301,-6.280541,8.955693,-1.4501914,-4.0012507,-3.812302,-4.171009
-1.6231519,-1.9464307,4.7899656,-1.1894453,-7.497615,5.2170105,-2.71541,-6.3320446,-8.40006,3.4213982,-1.5927238,-9.072098,-1.5713665,1.6677,-4.098721,-0.45681304,-6.9532256,-8.673789,-16.257122,-1.0538206
-0.18799078,3.7894552,-0.65342593,2.0418246,-4.6149006,-0.7122689,-9.967094,-2.238111,-13.454267,7.5635414,-2.9270887,-5.7478347,-11.492885,1.3370848,-10.440042,-0.8996032,0.38617045,-10.078622,-5.0311656,10.870696
-0.13979189,1.7368104,1.8715572,1.9013181,-1.5326197,0.75591445,1.9500581,-3.1536953,-0.11382629,-0.14889245,-4.858905,3.1661062,0.3657017,-2.030938,-4.288108,3.5750253,-5.609108,-2.7815537,2.1013331,-4.6741557
-0.30180266,0.76464164,0.7649455,5.168759,2.7293937,-0.26111156,-0.1298654,0.056261744,-4.22586,-0.5897176,-1.1735467,-2.9021933,-3.9762583,4.632725,-1.333973,3.2623818,-14.95047,-7.7532716,-8.712697,-13.170635
5.802765,-0.09644768,3.3329983,0.023260893,-1.461086,5.2735434,-5.372684,-5.565634,-4.8845844,-4.037511,-5.8508377,-7.3392696,-6.352344,-8.630255,-2.0684738,0.018245837,-4.7547784,-3.3094404,-6.8114266,-6.4483905
0.7031641,3.2542503,-3.586064,-2.7100718,-3.0230556,-3.716746,9.70704,-0.6684614,-4.6488485,-1.7650218,-6.6271873,-2.1628966,-6.786008,-11.550119,-7.3226852,2.9537332,-7.475556,1.1901726,4.8443265,-7.204806
-2.418001,-0.9753792,-1.9965473,3.6441698,-1.230542,-5.5306525,5.805236,3.058244,-0.4566719,-6.6482897,-10.321078,-12.972572,-1.0396932,-4.7304564,-7.6126842,-1.5407153,-24.99144,-2.1017253,-2.041171,-16.073284
-2.3751652,-1.9928212,2.423305,0.9941199,-3.6129181,-3.1694834,2.0668497,-4.9832253,-10.293859,0.22651224,-6.134287,-11.814528,5.197672,-3.5222566,13.120134,10.6609335,4.8041625,-1.8602414,1.9947759,-2.1358178
-0.49644536,-0.71469504,0.98545897,-1.4410913,2.732214,0.84302413,-0.50371075,-0.36814567,-1.9651432,-7.0025997,-11.191201,-6.736096,0.78854257,-14.739858,1.5805051,-6.481965,-2.8691304,8.453217,-9.748019,-7.8555417
-1.7069986,0.2972176,-1.2311077,7.692577,-6.7515516,-4.8829184,-1.2105334,-2.9084377,-10.940644,1.7408276,-2.9396071,3.8601084,7.1309114,-5.977089,-10.401088,0.67649937,-2.7934349,2.1157312,-5.21783,1.6644062
2.5862398,-2.013111,-3.7310166,-2.1825995,-0.31978106,-1.4819819,-0.12669137,-0.5423165,-4.1976767,-0.2807782,-8.487429,-7.5065575,-4.6594977,-6.328212,-2.6294675,-6.9909754,-2.3029504,5.780548,-6.7991304,-6.177943
-0.8014485,0.036045507,-0.6932817,-1.0223355,7.041499,-0.6949766,4.1443543,-0.8220533,-3.277249,-4.1360307,-11.030933,-1.6327261,6.5359383,2.6600094,-3.0389643,-7.2218328,-0.026016321,-3.8586054,-5.34919,11.0188465
-3.4761903,-1.1814654,0.11544195,3.2748272,-2.0261261,-2.4143033,4.9586425,-1.8804144,16.103386,4.675941,-4.008562,12.512523,-2.4264734,-0.73863,-2.0609422,6.210426,-9.338265,-12.8751,0.446551,-5.6881475
0.10608007,0.5182011,0.6835204,-0.58821744,-1.5158695,6.2680507,0.51045567,-0.053224698,-2.4237263,-2.502974,-1.3104366,-3.968247,-12.250868,0.53633314,2.8665175,1.9933221,-1.4785159,3.9407322,-6.9186254,4.3913565
-0.27922863,1.3124576,-0.36716184,0.22678284,3.236226,-6.26156,-3.2770526,-1.2754742,-5.5365953,8.67387,0.90109724,-2.9245625,-7.9748297,-1.6907936,2.9669154,-0.60585153,2.2783089,-1.7346327,-5.584806,-5.563806