1.8100914,-0.84435546,0.20629759,-1.2092798,-1.8884463,3.0879705,-1.8919845,0.3040745,-2.2538862,-3.5840974,-5.019401,-6.5596266,-2.1019647,-6.6419387,-2.4194992,-6.379451,-6.5652385,-2.9233966,-4.639088,1.62651
0.2779771,1.4615616,-6.4693875,-4.2375073,-5.145217,-2.1116636,-2.9716222,4.958097,5.9665327,-2.978561,0.10356332,-9.387714,-1.1575559,3.619383,3.8070707,-6.0588927,-6.2931213,-11.830771,-7.9132023,-5.9369035
-3.3734214,-2.4373305,-0.73311085,-0.44870436,0.6126089,1.7423068,0.7729103,-1.4875367,-3.2505145,-1.9078295,-3.0012567,-6.407721,-2.3876262,-2.227849,-4.8054028,-5.955955,-11.549772,-6.1849203,-6.3876576,-8.236763
-0.7600643,5.697062,0.7003621,-3.4491303,-6.1631117,-4.582746,-1.1804923,-1.7463708,0.9719918,-5.466353,-6.5308747,3.2966526,-1.6207206,-4.2038374,-10.836366,-2.7162607,8.516223,-3.5565107,-0.51609325,-3.5632324
-0.85662365,-1.4934944,-1.5785381,4.029196,-1.0053372,-2.696642,2.0564377,-1.0838583,1.8201258,-3.2388642,1.9796612,1.6464014,0.1830193,5.6814427,-1.942582,-3.1111202,8.597497,-2.354188,7.0437436,1.374147
0.096639276,-1.4128426,3.0201967,0.89908576,0.9662979,0.021265982,-1.1235216,-1.5314265,-0.9866504,-2.8375566,-3.3634813,-6.431216,-0.15885459,-2.437838,-3.1516647,-0.53656,-11.259849,-1.628307,-9.831621,-6.0129986
-2.1075609,0.6129962,0.7147186,-0.37307498,-1.2154453,9.001667,-3.114379,-2.0524597,-3.975583,-7.704072,-5.7977796,3.5983987,-2.027553,-1.8109556,-3.8092217,-6.440754,-13.161772,-6.5413866,-14.586027,-13.491686
-1.2449567,0.13122009,-0.18313044,-0.37481332,0.7157036,-0.25826144,1.3122187,-0.84895325,3.6711555,1.8181059,-1.2569535,-1.7309252,-1.1015135,-1.5787818,-0.88982457,-1.4663161,-5.8053684,4.576718,-2.2288654,-4.236698
-0.17451118,1.3645468,1.8789284,0.63256013,-0.7420544,-0.51605076,0.043260336,-0.632162,-2.6406353,2.706221,3.545833,3.0671537,-1.6978861,0.6118697,10.443621,2.3690987,1.1793144,-0.035554387,0.78958124,0.9940254
1.1304787,-4.3229184,-12.350953,-15.6893015,-6.235305,-14.501534,-13.982933,-9.2227745,-5.9785013,-7.9030557,-8.139107,-1.3095644,-7.4671726,0.4942959,-5.8954144,3.4529383,-2.3791595,1.070526,-0.3990821,1.8065175
0.25878912,0.4052798,2.1712418,1.271791,-3.8329263,0.031721544,-0.6136839,-0.8846362,-1.3881671,0.2095094,-1.6133934,2.7708166,0.2515307,-0.15616454,-0.44467798,2.5400765,2.4296021,2.799761,0.21846049,-1.4666218
-0.8255444,-3.0518897,0.09144101,-6.727037,-8.58422,-2.5045288,-8.251096,3.8841481,-4.861063,3.56095,4.458011,2.721896,-0.050409317,1.1416366,-6.245013,-4.7349076,-3.3417618,2.3187637,11.055057,0.27200857
-1.7944158,0.7368385,-0.713868,-0.58566207,1.8158493,1.788128,0.1283181,0.23504932,1.3884735,-4.7117105,-2.3083959,-5.612723,-5.580642,-5.6192265,-4.6205406,-4.3445544,-10.648244,-2.5493445,-7.644681,-8.755037
-0.09430538,-0.15499945,-1.522223,-6.1613894,-7.2504272,-7.180398,3.0008585,-2.4211504,-6.3620634,2.7615943,6.5870748,-4.6088986,3.4832463,-5.6047187,-4.163644,1.7480675,-2.3095503,-1.5707651,-10.273273,-3.1048458
-0.45070186,1.1043963,-1.5212976,-0.51055264,0.79599255,1.6738174,0.79473156,-2.123398,-3.638302,0.13103399,-3.130384,-5.274155,-4.8843155,-0.55567825,-2.1751764,-1.388526,-5.2590847,-1.3967466,-1.093491,-2.4560843
-0.66602695,-0.24810293,-0.015044467,0.95165277,-3.1914728,-0.6182783,3.324131,-1.3891588,-2.118431,0.7467917,-2.2935817,-1.0799282,4.389036,-0.9006028,-0.62557936,3.0634234,-3.8392074,7.305625,-2.0610547,-1.4613135
-3.055645,-0.87477493,-1.9034132,2.2009132,7.3466477,-0.46626917,-0.16867778,-2.576742,0.4414664,3.9157546,-3.463199,-2.4596515,2.2441535,6.003858,-2.0675318,-4.333672,-9.172719,-3.3719985,-8.758835,-6.349754
-1.5018561,-0.45622018,0.12942703,0.7289743,2.9436777,1.1491619,-1.3014715,-0.89352113,-2.8866458,-5.5623317,-2.774679,-3.4586499,-2.7669318,-3.8873065,-2.9588134,-3.1009896,-6.161513,-1.6894869,-4.2925878,-2.8343143
-0.8351317,0.02515968,1.5090921,0.24798056,4.485492,-0.4193511,1.9401593,-0.51491356,-0.8705882,0.788799,-0.9282488,-0.96419054,3.0379457,1.0658498,3.7626364,-2.3538125,-1.3734579,-0.34600738,-0.28690416,-0.28722572
-0.34864005,0.014167995,1.859276,1.0861946,-0.46232155,-0.9970709,-1.9868494,0.0013761497,-0.8006217,5.7965274,-0.30014977,-1.1155759,-0.26142836,4.9030614,4.266946,3.8570387,-4.230288,-0.4341346,-0.09961913,-2.1438763
0.010336173,-1.1250929,-0.0997978,3.7028952,1.171716,-0.20824654,-2.0755808,-1.3657866,-4.1555796,-4.7008176,-3.398011,-5.1196103,-7.349559,-4.082007,-9.352734,-7.9135695,-14.308865,-5.880737,-7.946633,-8.248397
0.5323564,-0.40950435,-0.4399144,1.356387,-2.257992,2.9632983,-1.3801097,-1.9681884,-1.63668,-4.189561,-2.1704247,-1.7931353,-2.7270925,-4.7978334,-6.2009463,-2.2914698,-4.6531367,-4.4901543,-3.7174392,-2.8898582
-1.0795286,0.6758449,0.5960215,1.6577886,1.0723935,0.72158474,-2.7112072,-0.0026977782,-2.90722,-0.1549625,10.27317,-3.0013387,-3.609089,1.6252478,0.15789916,2.7953908,-3.4876618,-2.9684103,13.129729,-3.2587075
-0.1756502,-0.18088752,2.3426347,-3.593359,7.795658,-3.7398407,2.659666,0.38992497,-4.4157095,-1.1655935,7.112773,6.792573,-0.036803097,-1.7209651,0.6671382,-6.04318,-0.76489305,-8.668428,-3.8688698,3.8290107
-1.9755948,0.9724943,0.05880384,1.4656516,1.160488,1.6711104,-1.5074453,-2.7321997,-0.7949194,-3.7706053,-4.100541,-2.6847548,-1.9636776,-2.9946382,-2.9302132,-3.5990682,-12.658017,-2.6349177,-6.513738,-3.9849806
0.2307769,-1.696098,4.9821672,0.09848486,5.8283772,-2.2723005,-0.5346598,0.346516,2.2393038,0.13014278,3.2150154,-2.8666408,4.2948337,-4.164762,-2.9103255,0.31034383,-3.6639602,-0.13559031,-8.329788,5.7615256
-0.8653797,-0.6725394,0.90949005,-1.0685472,-1.9996277,-0.11891134,-0.16431464,-2.11999,-1.0909202,-0.06399688,-1.7396183,-2.725505,-1.0324625,-0.7752775,2.4414666,-4.627939,-4.2686563,5.431854,-1.1533998,-3.8358169
0.39025432,-0.45442727,-0.21050276,1.5889908,1.2535931,0.38845122,-0.37107718,0.003535654,-1.2920215,2.1333272,1.6762161,1.6491959,-0.5740841,1.3106877,2.1903462,1.9189513,-1.8694769,-0.9084739,0.90779126,-0.5155718
-0.070707306,-0.34432706,-0.36173922,-2.7155166,-3.2743435,-3.8565984,2.2638135,5.292267,-3.7953873,-0.32733786,-5.1134257,-4.1139936,-0.71856403,-3.333709,4.6083837,-4.0886846,-1.2966657,-3.865564,-4.295736,-7.0522723
-1.5651318,-1.2051415,-8.063616,-3.2720377,-11.623297,-11.522104,-1.0307947,-0.13165545,-2.7227492,0.11084087,-0.4094185,-0.58233696,6.22289,-0.48043528,-4.4481325,-6.0837708,-11.726412,-4.0218043,-13.197669,-15.268874
-2.5121813,0.90448123,-0.54360145,0.7399042,0.4118945,1.1141224,-0.36585563,0.7723118,-1.824119,-2.203001,-1.3308625,-5.8548703,-4.5364356,-1.5696412,-5.124855,-3.2544184,-6.806756,0.70536405,-4.6409745,-4.3306694
-0.6788891,0.34425363,1.5282917,-0.11606281,3.7504406,-2.6717863,-0.7020795,-0.14874414,-1.6811851,0.5593571,0.69399714,-1.264637,-2.6401792,-1.8302003,-1.8747013,-2.0971243,-4.8724184,-1.9674324,-1.1693484,-4.7275605
-2.824096,1.816494,1.5183065,-1.4308758,-0.83275825,1.1079004,-0.84667367,-3.2519362,-5.711586,-4.435161,-6.2727385,-6.104462,-4.579458,-8.098045,-2.943124,-8.972961,-16.28429,-3.1576405,-13.957097,-13.100922
-1.8903364,-0.5808198,-0.6880166,0.943734,0.38981432,-1.0310755,3.250722,0.27039665,-1.2498941,-1.4139036,-3.9687319,-4.6194444,1.4528306,-3.5671754,-4.3509736,0.5883494,-6.6510572,-2.5071766,-5.1729517,-2.8970714
-0.56144434,0.7916318,1.467131,0.46927127,-2.2792494,-5.172918,-3.3304121,-1.2269648,-5.474846,3.0066597,-2.6025622,6.0160775,-0.051921703,-0.95192444,0.055745956,6.766672,-0.82260007,-1.4527769,0.10654964,-0.5318041
-0.9701676,-0.46069005,2.844347,1.0314416,-6.5657377,2.9626312,-4.4457626,-4.111894,-3.4831152,3.4512513,-3.1307547,-8.139952,-0.43702352,1.4390348,-3.312714,-1.5476983,-5.880447,-5.313365,-10.781532,-2.28901
-0.605754,1.7988191,0.44896227,0.5158279,-2.7681556,-2.7187233,-4.09167,-1.4962993,-7.489765,5.5388865,0.69579136,-4.7185936,-8.4241085,1.2029854,-4.2804036,0.68547577,-1.3779678,-5.115904,0.6696204,7.842788
-0.12121366,0.2509667,2.589401,0.33745915,-1.4889649,1.1255466,-0.17520374,-2.8260508,0.24150372,0.81887645,-2.5913203,3.411758,0.49663287,-1.8139749,-1.1423827,3.2994955,-5.3557334,-0.64822334,1.6046259,-1.7881906
-0.2514307,0.9120497,0.9471036,3.400289,2.5666275,0.8545446,-0.24557428,0.5863125,-0.4621784,0.772148,0.5143183,-4.069383,0.37493393,-0.96065116,-3.0487833,0.4907579,-12.1579685,-4.40913,-4.1081214,-4.3860116
2.5574057,0.6589384,4.66779,1.0982339,-3.324778,4.5272293,-5.797548,-3.4747632,-0.72084767,-2.7503905,-3.8385105,-2.938621,-3.261848,-7.0896463,-5.8816266,-0.15242794,-5.5729837,-3.2499425,-2.5642698,-3.35405
0.072104864,1.6124713,-2.2995315,-0.67027587,-3.1700757,-3.3940985,9.331771,-3.0097418,-2.5012496,-0.49895337,-2.6821134,-2.7695649,-5.298024,-4.8112535,-4.288505,3.770553,-5.756941,0.44435382,7.076314,-2.8373592
-2.5540116,0.10465813,-0.5096019,3.750588,-1.8179872,-3.8710303,5.062613,2.6440852,0.6270135,-5.1005793,-4.587289,-7.79118,-1.4924047,-5.759205,-7.963144,-4.185466,-22.751026,-0.15596624,-0.40751112,-18.780397
-1.2119987,-0.20312065,1.9739261,0.82729447,-0.615342,-1.1659666,0.14942703,-3.1804307,-3.9039135,0.7193632,-2.1846468,-6.5396605,4.1607013,-3.1622105,11.092308,9.482286,3.4120522,-0.010829841,2.872417,-0.68674207
-1.1719906,-0.53395903,0.50344914,-0.717901,1.8547771,0.37893397,-0.44584453,-2.477421,-1.8117261,-3.4867022,-5.064329,-4.864448,3.0126264,-9.10188,-0.099915065,-3.3259997,-3.0845025,4.9601655,-4.6813774,-7.254271
-0.64703995,1.1356741,-0.14647609,5.6542053,-1.3161885,-1.3808146,0.7188753,-0.48253044,-2.3585114,2.0310695,-0.7169934,3.6085877,5.4040637,-1.4891392,-4.29313,2.6540868,-1.4321758,-1.0843986,-0.17280872,1.2141638
0.6213266,-1.2053227,-1.8183304,-1.2506355,-1.7035259,-1.5798607,-0.38093874,-0.6501113,-3.2690907,0.75106084,-3.0066404,-3.8665144,-3.495953,-1.2621044,-1.8604671,-2.8555377,-2.2997298,1.5954294,-2.3079748,-3.5008888
0.04258295,-0.6052945,-0.1406802,-1.5106944,4.290942,-0.5468125,1.0692786,1.1904826,0.17983223,0.27445868,-1.1155014,0.49895462,3.225767,1.1646544,0.61380374,-0.72427565,-0.86975896,0.11831916,-2.2864885,6.694549
-1.7853792,-0.6662062,1.304754,0.85079795,-2.25662,-0.046936113,2.9240925,-2.463761,12.06702,2.7021022,-5.2020082,8.953744,-0.51562595,-0.61284924,-0.68799603,6.214489,-10.141104,-4.7548475,0.24366981,-7.060707
0.3843655,0.021472149,0.8278937,-1.2187271,-1.9344403,2.2178452,1.4352212,0.017368723,-1.6604719,0.0721085,-1.9162112,-1.1371399,-4.031797,-1.2792515,-0.48537463,2.7120078,-3.235215,1.3255858,-2.440597,0.5022432
-0.33942237,1.1189268,0.23138724,0.6549037,-0.3325276,-3.0798078,-2.7713604,-0.9288266,-0.9591373,7.7045627,0.85639554,1.6643767,-1.4206924,-0.21550255,1.8560154,1.3037409,-0.7273761,-1.4618759,-2.3761625,-2.7880085