0.8873882,-0.49816477,0.5653,-0.49286896,-1.2474915,1.3073628,0.05335734,0.8412707,-0.48507208,0.3010351,0.20669648,-1.4024787,1.2333448,1.5976465,1.7545376,2.4492452,-0.40066287,1.7805471,0.8210703,1.2717679
0.15822715,1.0396222,1.0457865,-0.26233122,-3.0727308,-3.8563654,-2.1116755,0.92860407,4.4684167,2.16224,3.2186687,1.1401371,1.6376138,3.9346867,4.902737,1.6039078,-0.66557753,-0.4501377,1.1530254,-0.37323335
-3.351949,-2.4753094,-0.73802227,-0.44266087,0.5712886,1.754973,0.79619604,-1.3904718,-2.336908,-0.3237285,-0.5815054,-2.305045,-0.75681067,-0.550158,-1.9554476,-3.336365,-3.08332,-2.9343908,-3.7342973,-6.8479824
-0.05885115,1.2897462,2.3463182,1.5444589,0.13235803,-2.192079,0.18848291,-0.032084316,2.8586206,1.9122729,1.3658774,5.3269024,1.2077436,2.6625135,0.2253619,1.4705831,3.7512407,1.0526142,1.1943375,0.5712825
-0.7923103,-0.2391454,-1.0798159,0.5986419,1.066801,-1.4908829,2.653077,-0.5269563,2.1665046,1.7991855,1.8271937,3.8823318,1.5161172,2.9222336,1.4296619,1.7753508,3.1473851,0.8141491,1.082669,-0.27142102
0.08366341,-0.85303855,1.8984228,0.9642426,1.2646108,0.42520326,0.85962886,-0.5689047,-0.3321233,0.80579025,-1.6161622,-1.3926194,1.313853,-2.138848,1.6068664,1.1592788,-1.9870571,3.5273263,-2.7250981,-2.4898343
-1.5446712,-0.5045142,1.6559323,0.120399565,-0.47144097,2.7811058,0.5892314,-0.27177474,-0.37830034,1.4346577,0.61177415,0.1872069,0.31365424,1.4996054,0.8213111,1.1040691,0.14932612,1.7669988,-0.20456678,-2.324688
-1.2319645,0.04251629,-0.15930198,-0.3499248,0.38987106,-0.06496122,2.1829817,-0.7540984,2.5706139,2.658062,-0.66754305,-0.26925182,0.91937965,-0.039351493,0.4262461,-0.1490902,-2.4971309,4.7975044,-0.21582407,-1.6385454
-0.18460594,1.3415252,1.8555351,0.97823864,-0.51081496,-0.47807595,-0.14678755,-0.51995635,-0.10769769,3.1691532,1.849879,3.1197438,0.9791889,1.5059259,4.7306137,3.2359073,1.1324391,1.6212709,0.9976103,0.57091165
-3.6970026,-4.7158775,-9.054977,-12.143981,-10.526049,-15.41795,-11.815001,-5.0129614,-5.305224,-5.0805693,-8.236901,-2.1376147,-7.162385,-0.33197242,-4.185896,4.2429347,-2.2281241,2.4596963,-4.1373878,-4.717914
0.2671326,0.48085222,1.756782,1.5889394,-0.15600824,0.37250438,0.36200994,-0.20249128,-0.59989077,1.6582402,1.4845655,1.9421462,0.9357406,0.73732513,1.2444988,2.888184,-1.4044303,5.054919,1.8784183,-0.87678665
-0.3774431,-0.021916695,0.46072757,-1.0672712,-1.5078741,-3.0548437,-3.2497172,0.89306504,1.5906184,2.9382427,3.716638,3.4663274,2.6445007,2.8314807,1.6545551,0.7572231,0.91860515,3.607743,3.4096544,0.47172213
-1.7462507,0.46113926,-0.5573652,-0.5188453,1.106695,1.988385,0.44344485,0.7133476,1.659583,-1.1271011,0.79335034,-0.43849814,0.730264,0.36619785,0.34336913,0.21204065,-1.383464,1.9667473,-2.7539985,-1.5814167
-0.5019401,0.07079114,-0.9850032,-3.109581,-3.9135528,-6.3694377,-1.0341456,-1.1121802,-5.3464108,0.7248402,3.8382642,0.14474075,4.550326,-3.817747,0.7403079,0.9535941,-5.1996307,3.269126,-3.9810379,-2.9549375
-0.46093136,1.0263513,-1.4926132,-0.5301349,0.8112002,1.7149231,1.096216,-1.8943061,-2.6637473,0.94086397,-2.6083398,-4.310536,-2.5388033,0.20249785,-0.26801747,0.5102125,-1.6290592,0.67442214,-1.0265807,-2.440637
-0.6736458,-0.2430006,0.060714874,0.66670847,-0.12795113,-0.8698246,3.3673172,-1.2108676,-1.6137658,1.9447807,-0.7918232,-0.23157206,2.677073,0.062592804,2.0229616,2.3058023,-1.1885368,5.204734,0.0733912,-1.4372077
-2.5164053,-1.37042,-0.21336663,-1.22933,1.376707,-0.6442415,0.72242624,-1.0228485,1.612798,3.8964756,0.8406293,0.679047,0.7132279,3.3276207,2.0949824,3.3843884,-1.7583834,1.4298016,-0.6642856,0.118568584
-1.4950548,-0.47474557,0.13576634,0.6777123,2.9563842,1.1607891,-1.2273326,-0.8647066,-0.9039449,-1.629208,-1.8573903,-1.1124029,0.934265,-0.983447,-1.7401227,0.1553848,-0.25039756,0.1197804,-2.266051,-1.5363017
-0.82563514,-0.028722107,1.7124183,0.35007882,2.1380146,-0.0043431586,2.7067208,-0.4432195,-0.1481872,1.5511822,0.30768245,1.2411482,1.5385045,2.8986862,3.9532838,0.34549516,1.8976438,1.1073041,2.0410514,0.25238502
-0.330332,0.049990296,0.85126925,1.3893322,-0.11561375,-0.6368604,-0.9551853,0.056566194,0.65504646,3.9472191,1.2198077,1.4704084,0.92387336,2.6890752,3.7285423,3.7840924,-0.008828811,2.0715785,0.9557797,-1.7898016
-0.31871462,-0.4983398,-0.91778815,2.4367523,1.6806972,0.05249648,-0.19836675,-0.16804391,-2.1880617,0.2713539,-1.463725,-0.77383894,-1.3697984,-1.5654409,-1.4629613,-0.5807599,-3.797596,0.054956548,-0.8642067,-5.3444395
0.15428786,-0.2851893,0.1423978,0.6025118,-2.020902,1.3850119,0.6735538,-1.0284076,0.92518055,-0.061249748,-0.21340734,-0.5382873,1.4041598,-0.6620051,-0.6966572,0.9990315,-1.9358704,0.7114399,1.9175212,-1.9818472
-1.0423311,0.5157606,0.63007134,1.6587408,1.1309727,1.1199105,0.6017754,0.16797484,-0.82143515,2.6075907,4.0000587,1.930565,1.436891,2.7610836,1.5488973,3.1530194,0.32303855,0.64341486,3.655258,0.030765012
-0.0505872,0.78888696,1.2169359,-1.3462358,0.1678622,-1.2807361,1.0708799,0.42112,0.34105796,1.7863063,5.081694,4.7670655,1.363999,2.3371005,3.4498923,0.26587355,1.7708335,-1.0517246,0.45210072,1.4449265
-1.9381957,0.52917504,0.2770258,1.4718859,1.1765208,1.7750694,0.9018112,-1.5245589,1.7523521,-0.3492674,-3.139382,-0.32201898,0.65253145,-1.7647141,-0.0737521,-0.69024736,-3.410009,1.3850734,-3.8905663,-2.569825
0.15850444,-1.1957816,0.7837332,-0.65355575,0.90936846,-0.3831317,0.6513839,0.18734452,0.6065852,2.109251,2.6874757,1.1111405,2.1309454,0.47526553,2.250129,2.2372537,0.027664954,1.7270198,1.2191443,1.7909214
-0.8828777,-0.65617377,0.4667289,-0.6543943,-1.532351,-0.47316095,1.055651,-1.9467192,-0.53920287,1.0671134,-0.28871796,-0.75303185,0.8318773,0.62717116,1.7182666,-0.7231294,-1.4357231,4.1626935,-0.22945164,-1.9458725
0.38652834,-0.44753775,-0.19310848,1.2473547,1.3638663,0.48461854,0.65366304,0.037542835,-0.8350625,2.9682846,1.7539114,2.0925252,1.191535,1.6214622,2.8012297,2.056918,-1.175183,0.059161164,0.7213944,-1.0637496
0.066135824,0.2118174,0.4373714,0.5397266,-0.72447026,-4.1177692,1.2408632,1.115059,-0.46462193,0.60343695,0.015731385,1.0431377,2.4434845,1.8982277,5.2910423,0.58453906,-1.2103041,0.12267123,-0.50804585,-2.8270276
-0.89925784,-0.32869306,-5.1327825,-6.147359,-9.378818,-11.533998,-5.4142575,-1.7386382,-2.7379801,0.45112115,-0.0007811524,0.106817886,4.548593,0.12524277,-2.3187785,-1.7697084,-9.2616825,0.9504267,-4.001423,-5.4653335
-2.4553108,0.44051123,-0.32439026,0.73313665,0.4350106,1.1574349,1.1502656,0.65286905,-0.30982614,-0.45476988,-0.3863271,-3.5105233,0.6598677,-0.04642472,-1.1216775,-0.423384,-1.4831158,3.6530128,-0.9424873,-3.1488888
-0.6360967,0.29325387,1.6056031,0.16443598,1.4602294,-1.6504897,-0.26043022,-0.076080486,0.36618772,2.3807433,2.1314344,1.081572,2.4365935,0.6931187,2.3648174,1.6239034,-0.9032836,2.0604024,0.2882285,-0.45181474
-2.3814726,0.17114368,1.7849325,-1.2620176,-0.8303903,1.2510506,1.2020748,-0.5000593,-1.1199466,-0.14583963,-2.6982305,-1.8398938,-0.046097357,-1.5545697,1.7194607,-0.94433147,1.1325133,1.2803507,-2.355259,-4.1722193
-1.8534065,-0.58054537,-0.6528596,0.8497141,0.4507581,-0.957411,1.498003,0.009039636,0.21224815,0.10354702,-1.7632985,-1.226238,3.8165596,-1.5080009,0.07861599,2.429908,-2.237282,1.8997821,-0.00014480948,-1.5186096
-0.5580931,0.8018903,1.4839375,0.6559065,-1.8856283,-4.5884686,-4.165298,-1.1831388,-4.5998845,3.457059,-1.8950312,3.9325607,1.3403869,-0.73793465,1.056145,4.518896,-0.4303564,2.4262884,0.22306122,-1.6073434
-0.8861691,0.021425406,1.0644362,1.7109622,-2.350004,1.6887959,-1.5169177,-1.7940904,-0.58632725,3.3175874,1.2589523,0.80934757,1.091905,0.46868187,0.7717701,0.9465311,-0.5165849,2.3426757,-0.12099147,-0.17032436
-0.80704254,0.7942437,1.6346687,1.8821956,0.60717744,-1.6730162,-0.7732065,-0.7600253,-0.28910875,5.27313,1.7134255,2.2144022,-0.14337952,2.3475099,2.4230068,3.6666455,0.58686304,0.927958,2.6700628,2.364225
-0.1371892,0.29054162,1.3867452,1.0536371,0.13588428,1.0077857,1.044253,-0.7662882,1.401857,1.7817189,-0.81807333,3.0380752,0.21197423,-0.8535737,0.9868376,3.549074,-0.9694077,2.4726944,2.0396407,-2.0095272
-0.20959318,0.8175856,1.0312794,2.4385731,3.0093732,1.1983954,2.641078,0.8167722,1.3954848,3.50353,1.6908145,-1.0193619,3.4511874,1.5333902,1.3073381,3.3358898,-1.1461294,-0.37902555,0.16803885,0.11844768
1.5487769,1.4037122,2.8009012,2.317571,-0.55403113,2.7908506,0.7441568,-1.2854955,-0.11556252,0.42626697,-0.48456463,-0.6931219,0.006658245,-3.0973773,2.0820963,4.379013,0.36432877,3.0351062,0.041356817,-2.1011648
0.15745874,1.2848976,0.83610815,0.29740325,-1.7769856,-2.382762,3.0704083,-0.68349236,-0.35535806,1.8973151,0.022871593,1.259724,-1.2361064,-0.73658913,2.71496,3.3119392,-0.66442174,2.1885414,0.65821457,-0.85933423
-1.8927498,-0.7420537,0.6995192,1.7374111,1.2511172,-2.3119504,3.022712,-0.8740255,1.4160941,-1.1610551,-0.30175218,0.57109624,2.379033,-0.4100537,1.2053548,0.7190983,-0.35342428,3.6656816,0.6034802,-2.1787856
-1.0101197,-0.3674244,1.7183063,1.1153411,0.0033817643,-0.5249575,1.291757,-0.52280307,-1.0792941,2.6627405,0.95007193,1.1313294,2.6762733,0.5721924,4.9053745,4.7070894,3.0591657,0.91591626,1.2994084,-1.5311612
-1.2606915,-0.45926905,0.6000446,-0.5798513,0.99127156,0.8927122,-0.33375686,-1.4994223,-0.636256,-0.31055832,-2.8957942,0.28528324,0.46075368,-2.4777133,-0.20734796,-1.6318613,-1.1648792,5.227554,-1.9541258,-3.2459037
-0.48070297,1.0202495,0.80349827,1.471954,0.76352507,-2.0123901,-0.024652252,0.37158784,-1.6347002,4.3501325,1.6188031,2.9582095,3.8444972,1.5673637,2.2064946,3.2475197,-0.7501026,0.6303212,0.8428254,1.3866711
0.26814243,-1.0833093,-1.7046398,-1.0835092,0.23723061,-0.8472405,1.9659532,-0.44140783,-2.5540118,2.78827,-1.375172,-1.8079008,-0.24958402,1.5561055,0.17068812,-0.46954465,-1.248524,4.77287,0.08081881,-1.435375
0.06554292,-0.60571635,-0.07520269,-0.73492813,0.6361217,-0.709777,1.6828119,1.0803943,1.1344556,1.2413162,0.4370961,2.9032006,2.2913303,2.691855,3.1592262,1.3350207,0.298801,2.30988,-0.26867348,1.6021427
-1.874678,-0.77891964,1.3371817,1.1433295,0.67850685,-0.20072918,0.5415056,-0.91300195,3.6934633,2.3236377,-0.7925101,4.394944,0.8887062,3.1008852,3.5623946,4.0043783,-1.080141,1.5526285,2.4247143,-1.9260477
0.36146966,0.021681156,0.7763365,-0.85649633,-1.9291896,0.4822674,1.974033,0.07819487,-1.1605215,1.2601421,-1.2949588,-0.17955211,-0.6250238,-0.49885687,1.7709719,2.6457086,-1.7556546,3.3388731,1.2003675,-0.5259123
-0.3582346,1.0934573,0.27149236,0.31283274,0.5389208,-2.6173785,-1.5223671,-0.8476606,-0.16182919,4.026115,1.8281648,1.9020929,0.13963912,1.8619289,2.7902803,1.7031264,-0.73874825,0.642356,-0.14796713,-0.01078549