3.1845481,-1.1318659,-2.043104,-1.9890296,-4.1732483,3.4605517,-3.6985862,2.0718555,-4.362291,-5.4004736,-9.850487,-6.956699,-4.129999,-6.7694364,-6.674277,-8.929269,-6.97753,-5.95788,-6.709337,4.3722873
-0.10172715,0.54935557,-11.32216,-7.727392,-11.213146,-1.4101468,-5.6757474,7.9701552,8.276114,-3.9096768,0.98697126,-7.292303,-3.351604,4.3980823,4.443174,-10.848803,-9.719597,-9.093748,-11.131206,-6.631198
-3.4139385,-2.5616965,-0.763168,-0.6743687,0.6277093,2.1115847,0.88971657,-1.5634193,-4.461173,-2.472002,-4.503847,-9.436116,-5.9085402,-2.0129411,-4.871638,-6.30658,-12.924944,-5.2135434,-7.686992,-11.962251
-2.8920908,8.499994,0.15785396,-6.6366634,-7.9397197,-8.580166,0.2802934,-7.5343943,-0.0076640695,-7.706844,-12.493703,6.349375,-4.6313024,-8.757862,-13.817255,-8.453171,11.820088,-6.050559,-3.237157,-4.534005
-0.2935242,-6.1241665,-5.74251,4.514582,-2.2469678,-6.8710713,5.6227136,-4.8949695,-2.9380913,-9.29062,-4.801347,1.5498632,4.2669406,9.569265,-5.6709213,-5.872913,12.956781,-1.3767737,7.1537867,0.78698343
0.32553726,-0.8926507,4.784554,1.0510105,0.3051969,-2.2370088,-5.641287,-1.3906497,-2.249495,-4.037569,-2.9215372,-11.509285,-2.8179832,0.004816444,-4.339578,-3.5018218,-15.112778,-4.0420513,-7.6565075,-8.952711
-1.7093807,1.4571453,0.83128816,-1.625439,-0.56455463,11.624356,-7.009768,-0.6471734,-4.801941,-11.196675,-4.9643083,1.9763218,-3.6132312,-4.4658875,-3.3765395,-11.473479,-13.636905,-8.9078455,-15.5480385,-16.863094
-1.258578,-0.017496327,-0.21461411,0.03171555,1.1218535,-0.49858955,0.009858633,0.6390131,2.2289855,-1.4173694,0.65441537,-2.824255,-4.327918,-5.183695,-0.5719883,-3.115623,-4.642213,6.9062233,-7.112211,-7.8096557
0.039246675,-0.44795895,2.3448837,4.0065885,-1.3775498,-3.7092032,-1.9700092,-4.7066417,-4.9498034,2.3498266,2.7728624,5.485685,-2.9072807,-1.6984001,8.713875,0.6747236,-1.6718849,-3.766555,-2.4707997,1.1560079
1.4374717,-5.0706353,-13.759216,-10.501646,-8.948146,-19.105951,-14.840882,-11.896305,-7.8542743,-13.550494,-15.165793,-2.323499,-6.107157,0.36564147,-7.9090586,4.6930165,-3.706628,1.4560391,0.24989417,2.115554
0.15432513,-0.52635205,1.80886,1.5899737,-4.394353,4.695622,0.606602,-0.9570223,-1.3730263,-1.4766598,-1.7159163,4.0870023,-4.593147,-1.3101696,-2.127972,0.9126531,4.429008,0.19118614,0.1016597,0.13429427
-2.5270672,-4.0696797,1.5253901,-10.8720455,-10.319575,-8.40292,-3.9369576,4.6328588,-8.8931265,4.0186687,5.1644316,3.2912853,-2.3389316,1.1304129,-8.13177,-11.197268,-2.062613,3.9283648,13.119256,-1.1129636
-0.8682277,0.4901151,-1.0492179,1.0265144,1.866774,0.19706506,-0.83025515,-0.70975,-5.732718,-5.694899,-6.0538907,-8.095937,-5.7697663,-10.91246,-3.6626823,-1.2760764,-14.062297,-4.117604,-11.602849,-14.077126
0.26255345,-0.71344155,-3.3237329,-8.953125,-7.7075877,-8.103147,3.6925359,-5.6664925,-6.7570004,5.8468475,9.756742,-9.515966,3.600247,-7.852295,-7.0881987,2.1245441,-2.7389538,-1.916325,-13.3681965,-4.6280594
0.09574826,1.1694465,-1.6604846,-0.62006855,0.7657397,0.49183166,0.8994743,-2.3050451,-5.638445,-0.60148156,-3.3612745,-6.1678314,-4.2262106,-3.3289187,-3.1826186,0.053895537,-9.238973,-0.60636073,1.0917587,-4.04579
-0.72318155,-0.020701373,-0.23173237,0.032224577,-0.73983955,1.1506305,6.512813,-2.6634095,-2.9418561,-1.7630581,-8.883163,-3.7070775,0.6587512,-4.708622,0.044631194,4.54817,-4.4238787,6.9156632,-9.1627,0.3562029
-2.5089612,-0.5063963,-3.6473138,-1.5117841,10.920438,-0.02608847,-0.096975505,-8.548524,-1.1190332,3.6885605,-3.5421526,-3.2306843,4.0432897,8.633322,-8.1626425,-9.250217,-7.274867,-6.045301,-17.356323,-12.575176
-1.5943693,-0.9951922,0.8375601,0.79668015,2.9395194,0.044474438,-1.3141493,-1.1078265,-4.2576146,-8.238945,-3.43851,-8.177135,-9.850623,-10.353251,-1.8135815,-3.8900628,-9.230285,1.183746,-7.6458535,-7.7554226
-0.84231937,0.64479584,1.2094167,0.09626101,5.074788,1.7003174,3.940747,-0.7266621,-3.8803563,1.1785699,-3.334608,-2.790138,1.0139816,-1.1122289,7.4804816,-6.150918,-2.953072,0.37285632,-3.3830235,-0.84653705
-0.490196,0.18526702,1.4372505,1.0378494,-0.7125895,-3.736303,-2.6158812,0.007272614,1.2980508,7.0800996,0.90152854,-2.9580092,-2.9128206,2.9784782,3.1780677,5.527884,-5.6071463,-5.3314314,-5.3468213,-5.293788
1.6727943,-2.5784593,-1.4639319,4.2571993,1.0264987,-0.34414688,-2.2935846,-1.3121219,-4.965635,-4.706175,-2.7224636,-7.580324,-8.970808,-11.069217,-10.799261,-5.6099167,-11.766827,-6.3877616,-9.249123,-11.906586
2.7692983,-1.110779,-3.352795,1.8189262,-3.441326,6.0688605,-2.9480083,-2.4612448,-1.6413805,-4.82914,0.4762957,-1.352918,-1.6241515,-8.541736,-0.23813169,-2.4442317,-1.4277445,-4.2799845,1.6213222,-8.179285
-0.66745,3.079603,-0.9976218,1.5186299,2.185138,-2.7491524,-9.236053,-0.059201904,-7.897587,-1.2008586,9.306945,-7.1390924,0.72772914,2.4036868,-2.8313987,2.4166398,-4.960477,-6.72005,15.363529,-1.6964214
2.4023402,0.8889525,0.9739023,-5.153243,8.197742,-8.229702,4.156211,-2.7127545,-6.444282,-5.185946,11.813425,11.635453,-1.9119827,-8.0120125,0.16143672,-8.746946,-2.123407,-13.119886,-6.1386843,4.6367245
-2.4238338,2.7298927,-2.164316,0.3495189,-0.51155084,1.9416689,-4.104058,-5.262083,-7.1946807,-4.542077,-4.2423215,-0.5303216,1.366191,-3.4786057,-3.1233532,-6.575759,-14.89048,-7.8323255,-13.870461,-10.021944
-0.43041053,-3.5402434,6.5022845,0.6547279,4.869883,-7.6325545,-2.7246227,4.014851,2.485541,0.35476744,-0.59409434,-5.5270877,6.0001597,-0.85487056,-6.118357,-4.148178,-5.5438066,-3.3322303,-11.892523,5.5604525
0.11197406,-2.3428288,1.1317025,-1.5871146,-5.3431134,0.58850324,-1.4018025,-3.0873985,-1.4871676,-1.7798992,-5.738621,-4.698946,-0.72833586,-2.849077,1.087846,-2.528871,-4.4021873,7.9430137,-5.7987814,-2.9469888
0.37632754,-0.53707856,-0.21036798,2.0474768,0.9949452,0.090474345,-1.6768458,-0.044906832,-1.5251269,-0.553406,5.5441146,-1.6030515,-0.1453967,-2.048502,4.529587,1.7695423,-1.728259,-0.94231933,-3.2917206,-2.3828783
-0.5172078,-2.2453866,-1.5289478,-2.091569,-3.158932,-5.01608,-0.123832755,8.0816965,-5.0188265,-2.8981879,-11.967391,1.7541182,-0.84450305,-1.4008459,7.2915425,-9.480385,0.6196295,-3.1742046,-11.455619,-4.169819
-4.440692,-1.5022845,-8.224289,-1.7478527,-8.492654,-10.248739,0.41497365,-1.213864,-2.8822393,-2.153367,-2.476651,-4.2023425,6.191551,-1.6942446,-5.506482,-10.456749,-15.469248,-0.66482276,-15.743283,-14.469842
-1.9792482,2.2498908,-2.400847,0.44389737,0.4348913,1.4609054,-3.077326,0.046543337,-10.346493,-5.2121024,-3.3939424,-4.3619576,-5.2337546,2.6487257,-9.012471,0.90486234,-9.36115,2.5626578,-7.98278,-8.30134
-0.8899662,2.4417374,1.4478611,-0.57301354,4.335748,-5.9372964,-1.5362997,0.14876667,-5.016793,-2.4500241,-0.784285,-4.80366,-6.431683,-8.035331,-0.71437305,-8.558966,-7.9410176,1.7335106,-2.4931161,-9.208944
-3.5331864,2.8851988,1.9792126,-2.1439848,-1.3372866,1.0666437,-4.482754,-8.172705,-6.303119,-8.556611,-10.549396,-9.664881,-3.6216657,-2.651107,-2.0862086,-10.544652,-19.144855,-2.6315985,-21.581533,-10.459097
-1.9821464,-0.8290758,-0.96706396,1.279294,0.39798138,-1.5455137,2.7788744,1.8768866,0.65977484,-3.4225335,-6.053722,-1.7455794,0.3855031,-5.7216587,-3.01435,2.105224,-7.5329447,-5.7389984,-5.7807345,-3.7651207
-1.0834523,1.8197447,1.1667769,1.7959851,-1.2267994,-2.598154,-4.4103303,-2.8914618,-3.2961557,0.070413716,-3.2821763,6.596743,3.3430407,-4.847296,-6.281299,8.958627,-1.452635,-4.002013,-3.826955,-4.1712523
-1.6457287,-2.0262036,4.836782,-1.1217959,-7.5142875,5.1749396,-2.7845263,-6.3391476,-8.472947,3.427251,-1.599422,-9.184767,-1.5645162,1.8285508,-4.0966163,-0.45697084,-6.8204956,-8.675842,-16.261562,-1.0562906
-0.23578554,4.7513328,-1.6182925,2.153082,-4.625046,-0.74522185,-9.988543,-2.2427988,-13.470959,7.568011,-2.9439206,-5.756455,-11.495193,1.326927,-10.440026,-0.90869385,0.38384083,-10.080012,-5.028488,10.950622
-0.14088912,1.7312919,1.9001153,1.8945193,-1.5328863,0.7205991,1.8842905,-3.1534445,-0.12422643,-0.14890537,-4.859242,3.1386223,0.365461,-2.0316315,-4.288244,3.5750253,-5.611781,-2.7815585,2.1013994,-4.6742663
-0.30488136,0.76449084,0.7632051,5.1816506,2.7309399,-0.2968069,-0.12526837,0.05320329,-4.2438784,-0.5901384,-1.1704056,-2.905733,-3.981502,4.6278095,-1.3324732,3.2572305,-14.969352,-7.9006886,-8.7180805,-13.172254
3.6936822,1.5285789,5.00335,-2.8747435,-1.6132927,4.237065,-5.5576086,-5.584668,-4.9279532,-4.029928,-5.8996887,-7.3633704,-6.303448,-8.598176,-2.0962343,-0.07295768,-4.8432746,-3.3435318,-6.892052,-6.373302
0.7352083,2.940155,-3.606755,-2.7112856,-3.0241323,-3.7193213,9.77327,-0.6631583,-4.6609716,-1.7712287,-6.6272674,-2.3051367,-6.807813,-11.55825,-7.3225527,2.9522927,-7.478907,1.182243,4.8576922,-7.2047715
-2.625298,-1.2285649,-2.0896432,4.0883336,-1.2016431,-6.8959436,6.605477,3.0398767,-0.8133706,-6.6493974,-10.329712,-12.984752,-2.0806186,-4.7332892,-7.660684,-1.5490152,-24.99491,-2.1017852,-2.0784533,-16.10974
-2.4020765,-2.001394,2.563647,0.31767333,-3.6113806,-3.6470497,3.254149,-5.093788,-10.316101,0.2096522,-6.148101,-11.814741,4.1637526,-3.5254083,13.145922,10.670588,4.8471637,-1.8774934,1.9256263,-2.111746
-0.57091737,-0.9812174,-1.426114,-1.4613649,2.639309,3.1277552,-0.5967005,-0.37369496,-1.96743,-7.0032783,-11.27839,-6.9038506,0.72272176,-14.776893,1.5746858,-6.4822855,-2.8691857,8.442088,-9.748408,-7.8764014
-1.7315073,0.31694114,-1.4177529,7.9107337,-6.7526946,-4.9205008,-1.6283242,-2.9147513,-10.95858,1.7198232,-3.0169392,3.8566258,6.945016,-5.9797196,-10.401004,0.67798287,-2.7944438,2.1083043,-5.223688,1.68376
2.6522322,-2.0215454,-3.728676,-2.203415,-0.30255118,-1.8262069,-0.13677281,-0.5511465,-4.19827,-0.28015554,-8.489255,-7.5776744,-4.6629715,-6.3669887,-2.5530357,-6.992177,-2.3095748,5.774612,-6.7754927,-6.179965
-0.805023,0.034078598,-0.68966204,-1.1258361,7.246074,-0.7013684,4.886699,-0.8511401,-3.2862644,-4.1421266,-11.451241,-1.63358,5.7943926,2.6579483,-3.037977,-7.2218404,-0.026331568,-3.8599489,-5.3491483,10.979235
-3.4772763,-1.1906046,0.123925544,3.267304,-2.0171483,-2.4334674,4.9605756,-1.888844,16.13061,4.686074,-4.009704,12.495432,-2.4323063,-0.7489286,-2.0588243,6.2257133,-9.340006,-12.8766365,0.46733296,-5.6879244
0.10307728,1.4800667,-0.27581745,-0.58887374,-1.5210418,6.1832714,0.5412644,-0.053570747,-2.425214,-2.5048466,-1.3169309,-4.0319586,-12.264883,0.5348695,2.8661342,1.9957912,-1.4813379,3.929071,-6.931287,4.4706573
-0.2759897,1.3118548,-0.37364215,0.2180581,3.236858,-6.264636,-3.2805943,-1.27586,-5.537658,8.682717,0.897838,-2.926774,-7.9765964,-1.6962664,2.9674735,-0.6058374,2.2774594,-1.7429154,-5.5849032,-5.9777794